{"num_categories": 24, "embedding_dim": 16, "embedding": {"num_categories": 24, "embedding_dim": 16, "weights": [[-0.34675458079903965, 0.23394684669598048, 0.12844225293012324, 0.04489304631078766, -0.17374322193048436, -0.1975177235271007, -0.0432777298318575, 0.30342116975373223, 0.3402669008351265, -0.147476982111333, 0.1686923708228553, 0.15070220075797516, -0.09643336093888485, 0.10348031623993696, 0.05465940311539325, 0.04107845135080649], [0.011995763998960568, -0.004862272585414459, -0.17360678792070292, 0.16342372217353818, -0.08142377169214376, -0.2667037453613905, -0.1353312970984996, -0.005701363684554419, 0.08028171731545315, 0.3206902038254356, -0.14014553759212028, 0.07375491849409624, -0.11630067629599959, -0.17631945049102035, -0.20255592894693775, 0.2802997179364385], [-0.1565902788445121, -0.02654175007368397, 0.21493151876781147, 0.11786019701571834, 0.2023584649089188, 0.43711399172411813, -0.28194230214305466, 0.12252010352640233, -0.2694093076356403, -0.029129135505564938, -0.4673700104705269, -0.2649788071789656, 0.14660367020742374, 0.3244711183955526, -0.11765724120471656, -0.07343969183530205], [0.016644559719319406, 0.12475019159463378, -0.13936691983945174, -0.04201300340193307, -0.10673230436950255, -0.45616260362807204, -0.1312961935981229, 0.29608724270667136, -0.09417254961415623, 0.04764252847674365, 0.1998023866203968, -0.2536146846087741, -0.1186924484962341, 0.14058871902414785, -0.14348083989528787, -0.07890335284750394], [-0.16200034677541805, 0.027555150939114446, 0.3978724334740312, -0.29182293850322816, 0.2677815928244323, -0.39327400710407506, -0.024315278575411742, -0.26224741647795613, -0.21386728445344177, -0.5157139831109137, 0.06971652440582735, 0.31320843323765096, -0.0867897082491205, -0.12237826053075303, -0.10795505581501504, -0.09825836859637715], [0.12533552649377278, 0.1499448635810001, 0.09144959595297775, -0.1686212455070059, 0.11726273937861961, 0.052251668989040864, 0.3737819655622051, -0.13330873958907868, -0.4794101064078779, 0.09762749531807806, 0.16306615754620385, -0.1623291125126344, -0.019641300057061793, -0.26068193111903193, 0.20884403952510944, 0.2550123086126478], [0.3166481435328692, 0.45349776790370633, 0.09698398685778029, -0.24089876777734123, 0.42328308705241396, 0.2466606213948851, -0.030135121334526185, 0.2883107143001609, -0.14972516335389824, 0.09454176981192575, 0.35282871983574365, -0.01829261283373889, 0.19595262357436558, 0.109101447715245, -0.16671693557291656, 0.551190933861957], [0.2706424680084278, -0.005729304564567708, 0.062289408034551894, 0.1611271932235118, -0.1704704721225111, 0.028645281467295856, 0.056114556349378245, 0.09858943074681356, 0.2009776861551688, 0.12291861726243396, -0.2962678876426594, 0.31708355238103303, -0.4502066361822835, 0.017377418096552546, 0.09101027934337859, 0.15224418030675196], [0.34342587074679715, 0.09135337198675396, -0.39695263194370944, 0.25413708050259776, 0.255931097128067, -0.04988442310017167, 0.25270171135776615, -0.15804256022925328, 0.10468376074017086, -0.05530103345239581, -0.1602318029910454, -0.2708500553722457, 0.2626018548246667, 0.37229234323269417, -0.031159958504701688, 0.1798359227978029], [0.0824278394164046, 0.09179789535576853, 0.3094173119664465, 0.13563870138894168, 0.39320157569257086, 0.18198358102828363, 0.05096973246582068, -0.4563026465999077, 0.20707891659005856, -0.09765383185822743, 0.21329229672490885, -0.023841769058975854, -0.023350162564806504, -0.15496320715479506, 0.08346515875963345, -0.08861262138469105], [-0.29697561254808474, -0.13659534845899157, 0.08568590521397039, -0.46227487761442926, 0.27462605920123173, -0.07694986493531555, 0.2890225491930193, 0.3201538988161809, -0.2646424186696276, 0.16464470386479832, -0.09246932231383902, 0.01929581824459793, 0.03088192790928445, -0.053998123053742395, 0.09427048458369254, -0.15280003284619098], [-0.5998167702630912, -0.4033068357496896, -0.42534280306556005, -0.09419275778206129, -0.2171298127623985, 0.11418963822344574, -0.2437948878154224, 0.2532136323318047, -0.2646171931828579, -0.3543755225334211, -0.4110392674773407, -0.14571329938676097, -0.3927920123474432, 0.11000918508352792, -0.04469299620700102, -0.16322215712312746], [0.45207018372707525, 0.028857342497001514, -0.12571823407443145, -0.3690475044121344, 0.051956081215193545, -0.21455732228261615, 0.22339385707362797, 0.3010152099601248, -0.5293255997943227, -0.09156006657582064, -0.079335699326703, -0.32190871123003434, 0.09714744104732094, 0.1393794679238467, 0.0021451695328623586, -0.06910638127108111], [-0.28998080311349544, 0.257149937065512, 0.1278491109572622, 0.12510663018624027, -0.07015345524270296, 0.3676953264047666, 0.029483836559696292, 0.06576281420183855, -0.253917228784831, -0.12845465464317957, -0.01158608851451847, 0.1305578909380444, -0.18740546982146977, -0.196317728239702, -0.09052014420810164, -0.4616877070066155], [0.019777826088210874, -0.22946507512821424, -0.1985416423576315, 0.23530798480981233, -0.1289271052551737, 0.49590294553826386, -0.005075009972602343, 0.2860693200017739, 0.03324592735848775, -0.19919877480257753, 0.03395803958702084, 0.04315202301212127, 0.09768155198660299, -0.6292324770258542, 0.12793873005373657, 0.2687234450322654], [0.35854959839281525, 0.06282615872523588, -0.11228639205053552, 0.1656685643568872, 0.06284809450752792, -0.2734260917542958, 0.09758169406656428, 0.060972068964873914, -0.050699917132859436, 0.26736386369493476, -0.2492323035735922, 0.1310866521714067, 0.14295909904649814, -0.1567863634829002, -0.03607082968886573, 0.2040859409853298], [0.1559636445728795, -0.06123422861946788, 0.2035807175964464, -0.13125387059172827, -0.047977667752945194, -0.03580933285520797, -0.09615019118936384, 0.2059225371131798, 0.045735233873112006, 0.07381080120662532, -0.11143563463113142, -0.050436229115673255, 0.020381558975142756, 0.0922991973738399, -0.07688536299527741, 0.13452940235392932], [-0.26461641381266277, -0.025241966031772558, -0.1882824415869609, 0.09858913895683244, -0.27446421701960877, -0.25205548651592635, 0.23928350644806695, -0.1879711743756885, -0.024063643069556585, -0.1914231466495977, -0.08051143894172377, 0.18909263911574137, 0.004107798240786815, -0.0029999694878166134, 0.04406759496506579, 0.04590762845007474], [-0.08815890947006656, 0.34962116882505256, 0.28839427856717126, 0.10732975740284653, -0.131464628126074, -0.12821164718016484, 0.24250677600675308, -0.08710857191305009, -0.027619187136268673, -0.1102004835579629, -0.02751098996742575, -0.286133310035857, -0.04051498653583771, -0.09559752831194902, 0.15058345444786528, 0.08905880144125171], [-0.048393505454259904, 0.04112620963914199, -0.3087930955114697, 0.04527997759515382, -0.21731397766915758, 0.014324581209094458, 0.1586902934053402, 0.3210371178713264, -0.16829026658431148, 0.13419743141970814, 0.2932656531922216, 0.1245682789377504, -0.42573097280286953, 0.34768737739207256, 0.0049037091631940624, -0.09836456729724095], [0.1882044402656495, 0.1635068042017192, 0.08812933287868441, 0.2467384445935751, 0.23283957343996312, 0.19543650629804532, 0.048863491067668643, -0.010714314381506792, 0.5237585549904046, -0.0768060161535272, 0.04275112089797776, 0.03644256937343998, -0.517662156276158, -0.3607404678431673, 0.3870654064568449, 0.14741751757730223], [0.13790094442147569, 0.035913336122725854, -0.28409918461614103, -0.3441048055597453, -0.32093134212031654, 0.1328815679114245, -0.17389312529679893, 0.012732526387687444, 0.21841960835803548, -0.11145243825091991, -0.029671325798397923, 0.11271718797571968, 0.2959793172890435, 0.24090228419861726, 0.13815876729353388, 0.1631620861979379], [0.13905989471700045, -0.1439835493161687, 0.17217012409470017, -0.034341950562565594, 0.0318216876225856, 0.1194570639895996, 0.07708650783685186, -0.16817384031158444, 0.2774493191551288, -0.08646338342094138, -0.016973196678490045, -0.018248773412512118, 0.03217018371523026, 0.2982315043542486, 0.21606022662209456, -0.5150132175478226], [-0.17435417742891066, -0.1381782320324823, 0.47671697956837633, -0.307923567945227, -0.27649784250513243, 0.42303055279963203, 0.09714352101623752, 0.08493874213501944, -0.02864953539268149, 0.023912596184247608, 0.15301259846642226, -0.19286053134444395, 0.10471624943231321, -0.3530468336541822, 0.0002588285715162535, 0.0936050381358985]]}, "layer1": {"input_dim": 18, "output_dim": 64, "activation": "relu", "weights": [[0.250126384530303, -0.758138159232369, 0.1826196954317057, -0.09515091747419521, 0.1838824757168909, -0.30342236719745563, 0.3927204940697833, -0.006703180271715702, -0.1598711359662271, -0.11597076218098648, -0.3345628877025666, -0.45743803779944386, 0.36632601781609436, 0.3588796671436734, 0.5631995439106803, 0.015066030498018967, -0.6393240517616435, -0.4094534134001602, 0.347986100332536, 0.4149566845220705, 0.24456919274238598, -0.11396932840434901, 0.08579081485871044, -0.2837916717537867, 0.27495241771192874, 0.6444216507328073, -0.27622021815711134, -0.2399735977260553, 0.016930929832980262, 0.07094486698533312, 0.06821796796554584, 0.3851295107291659, 0.36872362998727587, 0.46370517415048107, -0.2964512351105064, 0.012928600792788136, 0.16016315478480844, 0.1448712686687872, 0.2993623529198484, -0.27034509995983025, -0.06589326854483205, -0.4302724669074694, 0.003926536862330563, -0.26784742820367063, -0.4946360665833657, -0.33493101393284463, -0.03976955123585639, 0.19932351325436173, -0.14616657136711508, 0.05051678104678013, -0.37717554957768984, -0.12299713610471032, 0.23972650376509164, -0.057470906305682495, -0.19106945034247752, -0.0433577942905773, -0.1860766571076016, 0.361890493856068, 0.1987461887956939, -0.32747747262690496, -0.047503956464673765, 0.22678733208014057, 0.005987729441603047, 0.288142816771333], [-0.20704086564103366, -0.17366700584583017, 0.11859905463389821, 0.02171207395052726, -0.08425956054095797, 0.4860372306682297, 0.24716670165726945, -0.016804004913501397, 0.3874023129920504, -0.27866984016971125, -0.28922816836805476, -0.1449241866875935, 0.22297540944339392, -0.06137287247559764, -0.27908040176116033, -0.010339022535376004, -0.39246314499280543, -0.3012009936745709, -0.22208532497586447, -0.021195446045748363, -0.14520034689755937, -0.5065409313800343, 0.0751693806666978, -0.04349309935277822, -0.3440339097185824, 0.07337768167246386, 0.037034455006631814, 0.07001857086516, 0.3942248553631117, 0.17693777118953347, -0.18985670349522935, 0.019233568728765874, 0.4333610489929426, -0.08481202233255719, -0.23732824283281664, -0.2466036465720495, -0.185495470595503, 0.5911469704658356, 0.29568333744898234, -0.5693553835244298, -0.10160317904051169, -0.08710701617239328, -0.13217336830478785, 0.5015262410439575, -0.12654358579912875, -0.16241109289715913, -0.5692761496643015, 0.46291182208775866, 0.261363299851906, -0.08859693066800368, 0.03121245131784764, -0.28082238645738594, -0.05765805591356957, 0.061615060635333244, -0.10628323550218177, -0.021449839181741207, -0.6656841877578681, 0.09412791999141708, -0.28471507448412614, 0.014397008043696044, -0.3797116831264394, -0.206081905297308, -0.16111359262743247, 0.08770228224358628], [0.0350867551793442, -0.10406856693487307, 0.36314064256990564, 0.023356617031212296, 0.3553330091462919, -0.349010552235157, 0.29119879751409794, -0.10062597916479772, 0.07702270917364916, 0.044418959497116384, -0.06459818130377223, -0.2045809639139824, 0.06781047623172637, 0.6128150419039625, -0.15573157724408532, 0.40337266421029266, 0.20871442172729318, 0.17599097778946332, 0.07418414755134822, -0.09541281433987266, -0.25968513556492423, -0.5179185861754435, 0.24990587398468683, 0.021030877096240172, 0.7042097706393934, -0.2666295498320501, 0.5727762074007225, -0.12980920351920533, -0.16845102112464108, 0.03949187932794478, -0.6264510426499623, 0.2560373687398598, -0.36582986011658414, 0.5368860440915912, -0.15559755947612633, 0.20292337476679595, -0.03240580980888834, 0.09548876945607554, -0.15687321842164448, -0.2573376272716455, -0.4570034082265386, -0.1848324353871709, -0.2183228943613938, -0.0275913738829009, -0.4714370645618851, 0.04839240853295857, -0.14419637165810836, 0.18643991477971136, -0.38675064855524327, -0.004814146009413578, 0.041271819713257614, 0.029940674347357758, -0.07804095067182346, -0.15551719875461156, -0.3627189959266095, -0.3299282345294876, -0.2720139979741628, 0.18113166351259627, -0.4383048768481304, -0.3274140291966574, -0.1519682439443777, 0.24778597179449482, -0.3030293588074482, -0.4855659970133664], [0.08396094485519985, -0.08864662664299873, -0.03277727629378102, 0.026357857493426284, -0.7846941505937775, 0.5052797835712627, 0.5083986929937808, 0.18016940047714775, 0.691171585419438, -0.45805375007863547, -0.3085910320116659, -0.004028903219221224, 0.2642880911928581, -0.34758099587663077, -0.34396628554104514, -0.11335791158067962, 0.4289622599227128, 0.5177584385600393, -0.09771557628852406, -0.1989378044500511, 0.0003363031405256424, 0.043429819871875566, -0.08652829540621217, 0.3377414337905754, -0.588364630981705, 0.6834298392789799, -0.7016720855533112, -0.30735897142663665, 0.2724549450206905, -0.6382605539229855, 0.33733547918378465, 0.3950571024991039, -0.10087639881688616, 0.05360395158529419, -0.11662433952726944, 0.13161735110558856, -0.3444216354410948, -0.23680021729493575, 0.2763570589972172, -0.16003724307988765, 0.40028414342930296, -0.047573118293382594, -0.17175081376359927, 0.49625568985233914, 0.3825449746595189, 0.12161298881785072, 0.05070245794150739, 0.05098281299957287, 0.14274120729336365, 0.3964334883188263, 0.06784723344842797, 0.06304094948076659, -0.06554206921671883, -0.24501358469094564, 0.27326809322842294, 0.29729011671955585, -0.5455098453188714, 0.24788154856331945, -0.11587412843649886, 0.43678105736020645, 0.18124500228167842, 0.07080689566077382, 0.16344416415586885, 0.8368891427310452], [-0.07049295072770438, 0.003713434064347967, 0.1378325104526782, -0.4019687827559773, 0.14787203308487357, -0.13303001063839415, 0.42729065692100743, -0.43465427631304454, -0.35436397363221495, 0.07045902543670102, 0.03500434689400056, -0.546087507623354, 0.13249983911821206, 0.5903653733411769, 0.325527403060002, -0.35327091021418144, 0.3633186338722354, 0.05179490970470492, -0.005749792192913298, -0.09680117274907625, -0.4092469255619003, -0.11185208967574857, -0.3770213048051373, 0.407370003379003, -0.050482047500557216, -0.15308943923138768, -0.27309218726510576, 0.014772603481349117, -0.032899226999654474, -0.6172872962863964, 0.6228953588742571, -0.3334621901451858, 0.14876101740892175, -0.23306700917280188, -0.010101971420594715, 0.09847713432578237, -0.36094525245355286, 0.21535269894764852, -0.14492896481004328, 0.20317550222494832, 0.14509770898961363, -0.22586002097612662, -0.057303197441291864, 0.2005789104903507, 0.49176189183827607, -0.46662772089068805, -0.15837594821603718, 0.11701576772015507, 0.2349896802901267, -0.0816610613544815, -0.336678813031134, -0.5117566277492912, 0.42834569338023365, 0.36169427969477463, -0.5045808532826842, -0.11428407508390015, -0.10520083040518133, -0.33650496358819537, -0.02446275826961142, -0.5035799934605458, -0.11904507825344379, 0.6320618131524784, 0.14143823210918421, -0.2068656619760264], [0.042951312804579755, 0.3946882307152533, -0.14810893497093758, 0.16049818998209547, 0.3425331258860056, 0.3215400088152861, 0.08760839780702614, -0.010921017769305196, 0.5327045332227895, -0.12134712294787549, -0.1896528721502343, 0.0991435616484307, -0.6620279692170359, 0.21451785472801932, -0.07086054185388843, -0.2356515567971389, 0.3432608095553753, -0.22379933260337165, -0.364445453067639, -0.4425950180683696, 0.18466894117185798, -0.03428472132261002, -0.44810679490388117, -0.19930411570720413, -0.06892275301481417, 0.4420244839349863, 0.07956383365696804, 0.06687302245291983, 0.3463737166897445, -0.06295536602432991, 0.6041885319228161, -0.579131574184776, -0.48516921244268724, -0.5521454168393405, -0.20020359508843039, -0.42635445895120705, 0.1307804117305195, 0.4449335098278265, 0.11506986488098189, -0.2821076916643166, -0.22230120832320135, 0.2874170320065991, 0.19378492645170686, -0.05986337213375695, 0.03748973286134147, -0.39084991507528855, -0.8062465838287168, 0.5063245913270001, -0.02920834294998709, 0.07664250381092123, 0.10987694338308768, -0.16653299519976686, -0.09064647033906667, 0.012667523512232822, -0.33795741243621746, -0.03444540139578954, 0.1928624241028213, -0.5637623533398446, -0.23402645921751491, 0.16955809518009468, 0.18630728380990327, -0.13562931507878023, -0.1815542816357234, -0.5648404888241788], [-0.23156814231237177, -0.02015143690162868, 0.6186972664913106, 0.3756409906066446, 0.209499752363427, 0.8948350476993384, 0.448194605747337, -0.043138456769349826, -0.29012885767971996, -0.5658502184229566, 0.3209776173215812, 0.09908043698634711, 0.3435894945525788, 0.39967101540062433, -0.09129294786733927, -0.06542690111399277, -0.1907884464435319, 0.24963993797178932, 0.36680309680997786, -0.1428340822131711, 0.609475169149733, -0.05417951704551206, 0.266822774207767, -0.32516847519236125, 0.23180854867479175, 0.06344637107692444, 0.1418507703101872, 0.3657053622530515, 0.01785982872433909, -0.16780507191757438, -0.15087273337103488, 0.03166255025390563, -0.343338996837675, 0.28847294450438343, -0.08732275131296725, 0.10296430556571218, -0.33525160866959075, -0.5069344838019907, -0.18699644017366027, 0.3326653903516237, -0.1623931191830134, 0.19903581774896362, -0.33184356718236974, -0.22124331386439214, 0.126082778755216, -0.12739184022475877, 0.11992623080902978, -0.2605098313594642, -0.22234237390968054, 0.25529132807939037, -0.34174170709303403, 0.5026643049314672, 0.5022855598209534, -0.37407427839382157, 0.06218817160820812, -0.6074777982736648, -0.10216025374505086, 0.033376216070384004, 0.15447396604643387, -0.07708069369448942, -0.3345733815812306, 0.2674434752092312, -0.00682656505929464, -0.24169452377698936], [0.6817015073889254, -0.49585440457055485, -0.04275797787268043, 0.506440475126611, 0.14833236874707548, -0.08942264432574, -0.4149163733158695, -0.10501388742011283, -0.21252379969460333, -0.011493251830321289, -0.27190756327782817, -0.2453804216104041, 0.07863310421496905, -0.8049698380673671, 0.008728525998271147, -0.30195386593881346, 0.308738473455053, -0.29829851996889767, -0.3365163039230213, -0.5423109377542928, -0.014673361171519964, 0.12804957395102795, 0.04079335636307112, -0.08093519057815363, 0.09918636048212787, -0.3218655296004983, 0.10367312354826276, 0.0718437973383953, 0.20101090019831208, 0.2532810592182795, 0.14145427176487313, -0.42412210342479584, 0.09493559716131367, -0.2914998199583889, 0.14416688505853054, 0.07808546079699592, -0.25468566637353895, -0.06551669535163819, -0.7895826204635461, -0.2637029578958221, 0.49537229015409734, 0.06645474324694244, -0.7522568996105361, 0.06373015185447276, -0.0856742818065356, 0.02274133531098423, -0.024041232472888478, -0.0922202983642613, 0.2999206092076512, 0.7315614576589998, -0.29270443451925704, -0.1650361764236744, -0.015862131947836672, -0.32681605746309356, 0.2553512799588561, -0.4471416552863575, -0.05950583103890076, -0.16150996959008052, -0.5255963771639485, -0.3145963748184871, 0.01511284456051401, -0.2926993407205572, -0.7864987997439854, -0.20766537451312253], [-0.21961095002832776, 0.13048170752171573, 0.3456829368296398, -0.3517979025202963, -0.18170238721052778, 0.06089333323581815, -0.204857641193269, 0.1418596674952869, 0.3510893170790546, -0.030737788344744013, 0.30869026219956286, -0.25508770759194216, -0.27984652491677375, 0.20463763750326971, 0.31115709008992753, 0.21742394249687524, 0.23455956699182973, 0.26799027958829047, -0.02202734601925713, -0.37263076140843815, -0.24631004551319716, 0.02810940363609044, 0.1759843775197995, 0.23586673898977642, 0.2752213278314155, 0.1460298585291377, 0.09369951541483397, 0.4641602798358938, 0.08026661019023228, -0.8656170926345057, 0.421829379038756, 0.25061099824050337, -0.4167690791647233, 0.303166052899156, 0.4661794827804796, -0.0003290677980187126, 0.005372632494045165, -0.024607762912741266, -0.043998306535382434, -0.12691767093183176, -0.0720022122820256, 0.10932805271150586, 0.2676482894081524, -0.1439955483223906, 0.2673496050634597, 0.4007006835872492, -0.2466075712264122, 0.1377040973557116, -0.1328837535684716, -0.09228133837607655, -0.18513526808877862, 0.37901647409417377, 0.07265103456622016, -0.2808686538037123, 0.39261598540459924, 0.17155206674864856, -0.44959790981021786, 0.04770171667959298, -0.15936734873154235, -0.018339792095570396, 0.316492262046847, 0.04141738252509898, 0.1641058749584579, 0.8916794300473696], [-0.17896787459960384, 0.24579129048830883, -0.6670423930737949, 0.2636958007839806, 0.28111472996999776, -0.2912526102699943, -0.26458246597116225, 0.058286893292754466, 0.32948089847179374, -0.016787108320707234, 0.16751322505070923, 0.1941026360548681, -0.8734064186140099, 0.2148951657032347, 0.27206271236153967, -0.1679617152563844, 0.14970782043683847, 0.003616807422952179, 0.18311197628602888, 0.10848255685175229, -0.44114024402468666, 0.6193108722079845, 0.3688522999068243, 0.2852589208613235, -0.09990492403467417, 0.02805194022312179, -0.6237890110247055, -0.3198339771025219, -0.02261903994727412, 0.6936566839170883, -0.03393273924312463, -0.22067682694153307, 0.005031475061814016, 0.30413787248415985, 0.17777437915196553, 0.13020427786284997, 0.16428827502627574, 0.01194103801122184, -0.03650559189453554, 0.08226975541382596, -0.17163785645150223, -0.18354645271256853, -0.33057550663877017, 0.7380689544760983, -0.515077117017585, 0.17050264728116782, -0.44847111059453926, 0.4531962970650718, 0.6695134333095702, -0.10056746837596162, -0.19709989425422358, -0.37311529230750917, 0.11784384929320307, -0.11514889744703158, -0.29146715125045747, 0.45568732930431155, -0.09353916080027865, -0.42155863315520203, 0.10924626475628693, 0.7168056688619211, 0.09876107536813877, 0.06984679366477439, -0.3854709262438638, 0.06227785347879795], [-0.0036824446797991866, -0.10457245831985253, -0.21919650298782856, 0.459575257551361, 0.30060474739897547, -0.3427273883961329, -0.0695232714444236, -0.20007328122168888, 0.7800755356243206, 0.5085363286281646, 0.13916375886246748, -0.18578074971197506, -0.2063352639167815, 0.41169324154954834, -0.24938020721197154, 0.06631947692664748, -0.03560062799979086, 1.0466631311932084, 0.020798420142246508, 0.36067455322927217, -0.33819862023074126, -0.06795607389648246, 0.27106199844878026, 0.09396940508374832, -0.15301688449137751, -0.7104813617559353, 0.5986529016519232, 0.31108540203775864, -0.40747818801746116, -0.44659045573215206, -0.11208823498788807, 0.4824028208512735, -0.25068846026141034, 0.35581654363120024, -0.3605914317972444, -0.06807670964097928, -0.19088126992168333, 0.04400411433981539, -0.31438485899765434, -0.34585379713777115, -0.5031798823466658, -0.41252405170185363, 0.1654064203803971, 0.22475088164664941, 0.06931940328224548, 0.3231614477621717, -0.4868790980182178, -0.5316743256704258, 0.06406556024205001, -0.11572988211084985, -0.2077965497362822, 0.3672148966242005, -0.08714385384564817, 0.402663893337886, -0.4804206088922916, 0.09247371603126595, 0.04978676552447861, 0.13862874273361686, -0.413738407537544, 0.5702545504906006, -0.06361681718416957, -0.2467701773725829, 0.17786237833697763, -0.30845511133695047], [-0.2001000862116865, -0.23340524499924345, 0.299453182684866, 0.5473231694006612, -0.30377476027277195, 0.5278179730696703, -0.22660455545522934, 0.9298144404063279, -0.042355247119718394, 0.1899715958295124, 0.3917546253453623, 0.24966955040167627, 0.7098926155989478, 0.24628605822734706, 0.5409716644354783, 0.2721986207805407, 0.5520641553156111, -0.28503779933226625, -0.23689893101959494, 0.22598106899966097, 0.08276810626720119, -0.3098813404039194, 0.1243502460083555, 0.2360628959512994, 0.0770491698068343, 0.0862058940578548, -0.41049297067876506, 0.2562450788638456, -0.28436951128424215, 0.09499635168686776, -0.1755632017396675, -0.0313168849669299, 0.019230141204744824, 0.2911619877250867, 0.4323603463796105, -0.02556603320958839, 0.1849764941529608, 0.0016393951253545393, 0.33893022692678004, 0.18030647730767327, 0.510773645022087, -0.29770360622048253, -0.18581051146187832, -0.3245293047825485, -0.5167269551929781, 0.27702412681338145, 0.2913339540534068, 0.11369630524421032, 0.3607939289894986, -0.5009552020092223, -0.15348928076841584, 0.10083029492479073, 0.2554687709338931, 0.2144001359330439, 0.44914593003467673, -0.6846218042562151, -0.2790337974064444, -0.2115279536528294, -0.2960244215891333, 0.07024117922047377, 0.03478359024693618, -0.11511518073649543, -0.0723590221632259, -0.16190711646070013], [-0.04961815796792195, -0.11930347741621439, -0.2777922844322545, 0.06935293527311531, -0.10641376150578837, -0.14783416179922276, -0.5001975895236839, 0.47420813293085473, 0.4756158992800695, 0.32163356648311797, -0.47406672155217355, -0.37762648608402, -0.2260514451735153, -0.4788050394392532, -0.28017849567374625, -0.15687727462591447, 0.692666426618121, 0.21204845556659818, 0.001650442964567113, -0.17883816548255843, -0.12350598778078478, -0.05143964413482669, 0.16466029024452158, -0.005306398182025254, 0.10724865468575895, -0.4151591008497547, -0.19470200713968225, 0.2020921127798249, 0.5795945945554072, -0.0013583652488084884, -0.14849729936432843, -0.2496083713770242, -0.16207748585028214, 0.0523425545467056, -0.0800732960284019, 0.10425863301643973, 0.0006847671871967346, 0.02786560941124211, -0.05565101824969505, 0.1871862630064512, 0.33113559584459684, -0.2507041774343283, 0.2693362172459154, 0.1710764834956871, 0.14728681295730622, 0.2905158992368696, 0.07635377125191405, -0.1906447819841033, 0.12612483397620197, 0.2823952310714951, 0.7892168509006927, 0.2963057979997619, -0.1584712434661472, 0.10842666212661198, -0.16705987040394824, -0.31293448745266783, -0.01234522812101754, 0.25057844834507265, -0.09581296453030796, 0.01742818867436475, -0.3263057098997084, -0.3501519666955869, 0.2806559992641946, -0.3435666754519784], [0.39474947261571847, -0.32319541159942794, 0.3954920458608091, -0.030562347920809075, 0.1373362797860435, -0.4131240325965495, 0.3826666304599735, -0.33947534183077466, 0.0438123095616189, -0.07043846622445551, 0.08828071140455647, -0.02214327917099014, -0.02948487125859119, -0.31618169600361135, -0.26597193627200955, 0.183401309066937, -0.07186746312873799, -0.05464382383039155, 0.32134121368042234, 0.1993125934804472, -0.46217839299767755, -0.5687377632162225, -0.20497099611887865, -0.147913993562033, 0.05513213581878321, 0.007716561802688794, 0.30422742047513585, -0.5127164348753483, 0.8973862727607052, 0.05741934354821255, -0.10101417369805002, 0.2622075648195014, 0.1563378485713738, -0.5901526109642351, -0.21101120376529117, 0.33508434874081516, 0.5200344625329746, -0.6357551535335002, 0.7731407633099969, 0.3542311807869578, -0.29797285507854754, -0.03394547603893243, 0.18634960748099275, 0.16892362036260425, -0.30293107132560054, 0.24640940259121813, 0.1837581428684748, 0.028951479801510735, -0.07984658193106198, -0.24533176094850678, 0.13244945645784997, -0.41143956536587967, 0.46384426287198816, 0.3643065875198994, 0.2351674653836609, -0.04054204612632144, 0.19614282466149582, -0.2837048812765638, 0.3061450718655297, 0.2840531699636246, 0.05154360554540411, -0.43778808136453484, -0.0626608424827787, 0.19179691262272883], [-0.03998948497975121, 0.12690447668152646, -0.16760081620003547, 0.5168244178074481, 0.14528675208076697, 0.05268379298714297, 0.42452167972614674, -0.03613808973402919, -0.41566024334977497, -0.7474269266831632, 0.12205778846085026, 0.7142122788424771, 0.06337209328210679, 0.023802919385481073, 0.6836763591565282, -0.2541988126080865, -0.5996269332752452, -0.34688204906580866, -0.12473544826724864, 0.2727129533897764, 0.1455036260019078, -0.33930195776989214, 0.3808363112756819, -0.4356165185781874, 0.5514073604215934, -0.3716480728217624, -0.5520762037988628, -0.28461496057590235, 0.5711978225747111, -0.2917522299299141, 0.010215164265493513, 0.247331477121302, -0.11500156747678322, 0.13456735915617557, 0.5369118929708901, 0.004915207708559561, -0.043344191571552455, 0.21218235758907658, -0.544648708093267, -0.19999720724464098, 0.2616277187305023, -0.33065804096710816, 0.08820225726942685, 0.4310233845390459, -0.36317602046507114, 0.44200851991855583, -0.07968411410166623, 0.3854289198959121, 0.36599807755575386, -0.2556506283524829, 0.4383884398428055, -0.07606173098597387, 0.11748444317451308, -0.23414905624109006, -0.2892363297019653, 0.149347513276677, -0.4438192866693179, 0.03471189791484297, 0.05394157173672823, 0.26810019992181355, 0.2453614865987326, -0.6796817435350536, -0.14930714243290527, 0.42322773699704275], [0.3720178668043406, 0.17494412095670026, -0.04261894630610259, 0.8085861874363123, -0.4376188288324168, 0.5544159958872148, 0.3845744899258555, 0.09726498505424358, -0.728649385686982, 0.2734864288840433, 0.7564970375461222, -0.04877752741721637, 0.1547672535586862, -0.44855118852994924, 0.44933437105005974, -0.36487529327499146, 0.2144231743898496, -0.019121280181261812, 0.35620019076106996, -0.4804748527791634, -0.5309849017836659, 0.1815815665213432, -0.01520998240493011, -0.30464546178802415, -0.532012398170777, 0.17361228762799014, -0.19932445961585576, -0.1434320865672724, 0.42519616458989523, -0.12695632743663987, 0.6961451552078756, -0.2906484920053385, 0.16191105875156228, -0.1401734560291389, 0.203799119028543, -0.4722329961142181, 0.22154563572765207, 0.13182821457390398, 0.3448044509976472, -0.5034713036033891, 0.011988846253842021, -0.3774759431176079, -0.3607950823126823, 0.1233057343471867, 0.000172219047445754, 0.8413207780956156, 0.009227027625665867, -0.23525652161768798, -0.17281205119624335, 0.007201897544043181, 0.14298251141234627, -0.238348178166211, 0.22907478033234574, 0.05409203794164858, -0.19301903300066664, 0.051030701801254644, 0.15552447811579811, -0.02473111428532464, -0.20403552551555737, -0.18059030260433934, -0.32864696958939826, 0.2899499359588749, -0.07339947965927873, 0.09244855242437938], [-0.13583262863684953, 0.16601916992398805, 0.09842490724937854, -0.21441503751546145, 0.32150719256095484, -0.16206361049714446, -0.04856456007928315, 0.03549884601224966, -0.26879385140485046, -0.18979465333197787, -0.044428327001254715, -0.2143800240591749, 0.8074677717485288, 0.20534545363750734, -0.05430586421427411, 0.055721423308962126, 0.2913457190050621, -0.13520707238159385, -0.10038271783482239, 0.07534218051963208, -0.17662492994564993, 0.035802633147418064, -0.12397087642219642, 0.12916899748476446, -0.2446061858765377, -0.009048523446818411, -0.016136913286845696, -0.08046690691345247, 0.6714946169140601, -0.044635615424164644, 0.3101566934532327, -0.2970982333719101, -0.4029775302552622, 0.41147989679091973, 0.4120019774576878, 0.3015285999905533, -0.04515870474322962, -0.2245730416708962, 0.13054259797594414, 0.1560980016984361, -0.2518559333433973, -0.34565913929250397, -0.007333221624153026, -0.32211199997543316, 0.24833311170780384, 0.01952089363985655, -0.0909764223748501, 0.031407254540973824, 0.009494732945624675, 0.21113681758183614, 0.2252546388578197, 0.21291467884608098, -0.42537172304077325, -0.6447680223199286, -0.15765208099590824, -0.5374528944087833, 0.3998779168439688, -0.12987379281905495, -0.5227569359734442, 0.5174539082759886, -0.32656614123594613, -0.28450569872669673, 0.08607119744446887, -0.08289634129623497], [0.027915608048101975, -0.37682187740678375, 0.08730721731205693, -0.6787844948534538, 0.22182730194067427, -0.2681800461342218, -0.32535688166555116, 0.20475589143214262, -0.040526442298372364, -0.2699976853097771, -0.14068938530443306, 0.02807598111560125, 0.10497245288520612, 0.12950476362438967, 0.18294757395044514, 0.08123474207378903, 0.3533845935172942, 0.38796422578764395, 0.004373768583059581, -0.03435223614572923, -0.044290488531498404, 0.1167086995164977, -0.6955527272227583, 0.361308370887735, 0.022122204589534303, -0.178848759893849, 0.18795616138443663, 0.05874017067994292, -0.0953922290397626, 0.4261948767706261, -0.30050793224436023, 0.05083810378535335, -0.3075879738969276, 0.12318869726446185, 0.7306908115440028, -0.0599958020597324, -0.16995760104194274, -0.041822558560140284, 0.18185784588352805, 0.24901170281353283, 0.020353095767538368, 0.12397617259527219, -0.22164323964544932, -0.43262402800525557, 0.371599657632699, 0.3542592951712933, -0.4693155113894104, -0.2622201107243219, 0.3966394506813632, 0.28269197957488357, -0.015057214097619323, 0.7316166102876928, -0.5336158166785231, 0.3398064051797107, 0.3667537926595351, 0.1911900341226355, 0.291848275642038, 0.1725627013330085, -0.03981688068071143, 0.30023664085509355, 0.07647122954246441, 0.16209635228410735, -0.11716152870210608, 0.08203171746575066]], "bias": [0.0, 0.0, 0.0, 0.0, 0.0, 0.0, 0.0, 0.0, 0.0, 0.0, 0.0, 0.0, 0.0, 0.0, 0.0, 0.0, 0.0, 0.0, 0.0, 0.0, 0.0, 0.0, 0.0, 0.0, 0.0, 0.0, 0.0, 0.0, 0.0, 0.0, 0.0, 0.0, 0.0, 0.0, 0.0, 0.0, 0.0, 0.0, 0.0, 0.0, 0.0, 0.0, 0.0, 0.0, 0.0, 0.0, 0.0, 0.0, 0.0, 0.0, 0.0, 0.0, 0.0, 0.0, 0.0, 0.0, 0.0, 0.0, 0.0, 0.0, 0.0, 0.0, 0.0, 0.0]}, "layer2": {"input_dim": 64, "output_dim": 32, "activation": "relu", "weights": [[0.08583799154592157, 0.12330053732364156, 0.12763919719692893, -0.11335383373726331, -0.280933827348547, 0.021596780450914895, -0.3230379637146012, 0.03179148451984236, -0.13374158872111286, 0.0029463090217588268, -0.07835087210331212, -0.15913268605838293, -0.10096448226631491, -0.07929973761062016, 0.10905719622368178, -0.23379384357974387, 0.16348708127452394, 0.3263031292936177, 0.2728941488857265, 0.21079995586447176, 0.29202942506008983, -0.18710546834731884, -0.2904031465119672, 0.17340490538866205, 0.08583831452280784, -0.06912142402226358, -0.030958490738108687, -0.10994874974533293, -0.21690196223542435, 0.3907962336306276, -0.37633741348561356, -0.40161247129903554], [0.2669779468145997, -0.2343656434078489, -0.07109093163669465, -0.16789761901010813, -0.049795626268313964, -0.15081916737898915, -0.2593674535972204, -0.13585684378501198, 0.19941050512409284, -0.015246214657202857, -0.22191250031805945, 0.018704509266987416, 0.24653097541468594, 0.2508942804235638, -0.27531004302830553, 0.38794767411096015, 0.013247727132048377, 0.1938717403939527, -0.17666866174661963, 0.31921061636016956, 0.19814216129723305, -0.06599037684611848, 0.2796977981086857, -0.12043810514972558, 0.11942132885968214, -0.08786274501165929, 0.168734568997824, 0.11338522865370401, -0.05561592065699306, -0.08901018986859158, -0.07099915510444373, 0.24970756513347261], [-0.25656012178219223, -0.12142043859473171, -0.03911468526369746, -0.08795569443619183, -0.07340375903477446, 0.06410827196805655, -0.08357604869041818, 0.1681947610032297, 0.11361001401241079, 0.2359713401229551, 0.1135344170048794, 0.055488074372772464, -0.008281638350145339, -0.10226549607948202, -0.004088349291718063, -0.14814683617526134, -0.037179823267331116, -0.1468751401745108, -0.1607805786595103, 0.1242787015049156, 0.45473172223112357, -0.3562950755530293, 0.10325951238130843, 0.22473234984146812, -0.05609495095344117, 0.16238013859348682, -0.24219444765865708, 0.056909253871650106, 0.14350203333218423, -0.06695698357272427, 0.20740489326944733, 0.25599804592368947], [-0.162525463731223, -0.028141760454822976, -0.25074320059961386, 0.14014568437696714, -0.10458645520787918, 0.16392939834930018, -0.05162514516322099, -0.3378471390296062, 0.3102366599056453, -0.10512881981284972, -0.0924779301841937, -0.0731665631322142, -0.022045906705263685, 0.1507242033642398, 0.22524905178614762, -0.045728352858801724, -0.17717723701644877, -0.13219190014785018, 0.30547261857864916, 0.0863496465430979, -0.06018761376659945, 0.31809542417915304, -0.21034550589068088, -0.06211540374605239, 0.1966260397760216, 0.1504967586610091, 0.29373017520537703, -0.15092594043843893, -0.11258860210272693, 0.02577855132024924, -0.039631504713973156, -0.10837079281410979], [-0.05927282848370338, -0.10592087813133476, 0.4028833811639422, -0.09021741573634441, 0.3246708396440337, 0.19719153427675268, 0.05705595097585577, 0.06243758182844453, -0.013945544767136367, 0.2998404330002913, 0.022273787918971187, 0.28100941128494733, 0.03517018259930971, -0.03688204718847608, 0.03448490330784854, 0.07939965492978568, -0.028236106021513736, 0.022291220281045528, -0.23375165833799816, -0.07986702443721799, 0.0985199029627305, -0.22571624829077108, 0.12357340824879351, -0.01739782410636966, -0.20924211069535728, -0.3171968495648718, -0.010719081280904466, 0.10225626525060962, 0.25335479425113777, 0.03166652624626925, 0.35613872873363706, -0.2167782755206997], [-0.12456067955876277, -0.3182430445613352, -0.2245870950394535, -0.27457562437763167, -0.22715482728454092, -0.061479312987298106, -0.16268515944649478, -0.10890495203798518, 0.23305134466753774, -0.16389669921880934, -0.21179443374945156, 0.23546344922813411, 0.18639580461459723, 0.2533919503123721, -0.15648458954373778, 0.21888311573334746, -0.26069581943554543, -0.33821886399463846, -0.3608738258569605, -0.3661854608298462, 0.14311541824953503, -0.22184384689854666, 0.1519388208164437, -0.058762847614130066, -0.22837397166706014, -0.12487670615634983, 0.19181493460503982, -0.1977810960072354, 0.08401300740874594, 0.10425397938729494, -0.08945561585350573, -0.04234592860487034], [-0.34605930620426395, -0.3426473281194383, 0.0025831265264804164, -0.08601568201426905, -0.042926587255599925, 0.007399660719394333, -0.08525065027779055, 0.13425073358038497, -0.2762188973647146, 0.1201211069070625, -0.31618187591168306, -0.048112783051540174, 0.033343367517884206, 0.037834858117614736, -0.20900272973813308, 0.14788270085554525, 0.19720692169300952, 0.09669507105012608, -0.40954147742611086, -0.0437940988974119, 0.039448226373924825, 0.06383297979097774, -0.05854865158827526, -0.19976551484543414, -0.3672030636327743, 0.13945775110977912, 0.05398815035696686, 0.1381240694328473, 0.25180661308494845, -0.265106360635937, -0.12218529639274567, 0.08901948421634727], [0.10433733411076013, 0.18115071566453034, -0.1235155067461466, 0.02012942751740464, -0.272821396524111, -0.22240100488347242, -0.197547780064993, -0.10597182831732546, 0.27147353294992094, -0.11478687129754597, 0.09692210543328117, 0.07497083042797255, 0.012857147684395677, 0.14382205486091626, -0.13182756263347886, 0.1410422876108021, 0.04886730306656178, -0.040506144807343075, 0.28629974535421887, 0.1256728198756923, 0.010952319643916604, 0.02724560664591234, -0.16316047407343734, 0.009777868528208344, -0.013502992163179633, 0.05216379725258141, 0.239171585019083, -0.057475703642874756, 0.330801942584295, 0.0034082310252589016, 0.3442708618732696, 0.17662275474699698], [0.11831811619210425, 0.27201181535700053, 0.26464975025001075, 0.040597845300309326, -0.007829032776937084, 0.4529952450900622, -0.20452848974041868, 0.28835716360781743, -0.14492321733634791, 0.08822466555300369, 0.183363788540266, -0.16424936936773885, -0.07172226335067934, 0.19368485546264425, 0.4310633758242254, 0.08340386721020761, 0.13147160314878786, 0.03511069787423073, -0.15407421094963258, -0.12275488421941404, 0.22097359870188255, -0.3712161782225035, 0.06502969345895476, -0.31898243538291, -0.08410980284451167, 0.08365635892755287, 0.16660456336581114, -0.06473067425160207, 0.08617008998745244, 0.42136570783469446, 0.1155322188309556, -0.15160301380397023], [-0.05118499041035196, -0.07985084889036104, 0.11497001189213266, -0.18516883633657696, 0.11181075200935997, 0.162266018372892, -0.0963034695079971, -0.2919364221294397, -0.01843547521230778, 0.18550858266504877, 0.3286692719063122, -0.09192345633249006, -0.027507118870436893, 0.028857896984405013, 0.2554454132153663, 0.20232308014804565, -0.23618071003992178, 0.29548634479968955, 0.10861826839086557, 0.2354687415860768, 0.19896827938778325, -0.27904533304953777, -0.0024024295595437175, 0.06631411654509009, -0.07256132799912876, 0.08182517669335646, -0.13522341156356385, -0.10682942531322799, 0.09406019009033803, -0.030589823837715517, 0.204193735267588, -0.18832616940682312], [0.1059122536978822, 0.09011261269086593, -0.005722724141364154, 0.09268614939119102, -0.07544820130560241, 0.16204098496937908, -0.1960650508553482, -0.16172349184449755, -0.1429991665846186, 0.05526340758546655, 0.1821023582524728, -0.07666471943847457, -0.09100750636732598, -0.021365410940753803, 0.18667731793106895, 0.012283480147816979, -0.10575317318972043, -0.12412491147570384, -0.16795902054040268, -0.14629725888885503, -0.02924379786519659, -0.1318907128655765, 0.06945410582053074, 0.061332850285204826, 0.1406586004672383, 0.2995620443921896, 0.31487303126125116, -0.16847552707988814, 0.08942675404987663, -0.07337138413675971, 0.05829235871801106, 0.3236231477803906], [-0.41696484153409996, -0.005128499172651629, 0.17629793624927423, -0.06669106676278885, -0.03254508762010407, -0.08818195300766017, -0.09840972577984362, 0.1060742630984798, 0.19696476911196684, -0.17138264438322, -0.1390653600449712, 0.271475204421548, -0.20643775434419273, -0.0907284802358794, -0.33988578305737116, 0.09094241760508896, -0.37121223076537907, 0.1065664967333823, 0.15212417356056368, 0.014971069634550048, 0.11399918466296077, -0.07598577185750835, -0.2909803044667479, 0.1928465638587877, -0.08623491522236286, -0.012731207598417001, -0.25784991797873286, 0.024669973771918267, 0.2464160410800339, 0.23048880913638714, 0.12113486921943231, -0.047986337916362976], [-0.042794032213794596, -0.046502222444544467, 0.13520818206651974, 0.046684415613055405, -0.11765648541476421, 0.035267927328964416, -0.29477318853030277, 0.24175014194665903, 0.14072741173601316, 0.1475252914342977, 0.2671974976759161, 0.28681001547740387, -0.19227158391961405, -0.012943034695131193, 0.3673200421555032, 0.32870036711912964, 0.3949534794375032, -0.1540323843947399, 0.2002834250314307, 0.2768701095315227, -0.09764802897071105, 0.08791651499388808, -0.1713372194130548, 0.17847429552931454, 0.3000274413166802, 0.10588428250654999, 0.4565649645920449, -0.045343482466048524, 0.01625956902118321, -0.16197863047485564, 0.06729729249305186, 0.24179583759380435], [-0.25218692494446493, 0.01590565926149296, 0.021945911584409266, -0.2500445710506554, -0.03991477532482431, -0.09638064239762244, 0.07307248116734358, -0.12815815548283174, -0.20992097896194264, 0.06734164517477768, -0.16694441867532853, 0.010957187768232152, -0.047409028137800464, 0.03838252032514006, -0.2637965673052259, -0.0019719098229287004, -0.08615698499141078, 0.04429480952911872, -0.013413930106657987, -0.11252986965358917, -0.19652943735577633, 0.17111982712359947, 0.11089377974861171, -0.06823917128630255, -0.11788704543882587, -0.2838163840633827, -0.05874835912553537, 0.13173642247832737, -0.23632027904312242, -0.3218221996046476, 0.043523588264709215, 0.11308207443153814], [-0.22253770867838904, 0.16476590224283633, -0.06349090079151812, -0.1886634983979535, -0.2606008297741535, 0.015419657720007736, 0.09826457495917913, 0.02815525800093973, 0.21833272254334818, 0.22032239106513182, 0.15335732697171187, 0.23523229049792554, 0.27873681331655165, -0.19180761621385126, -0.16284990731006355, -0.26849540951839196, 0.07072857721598412, 0.07335767932666631, -0.06848450598629927, 0.05618884316488117, -0.048580677795051985, -0.19787267123815216, -0.05892089368523712, -0.1027365840648394, 0.06147971284991167, 0.04967206322027082, -0.2384963168579819, -0.00019719955641356117, -0.06872584320085393, -0.13643672023168818, 0.20189700693138812, 0.015368292028279863], [-0.2419908270334408, 0.10751918587475824, -0.14255026360589462, -0.06833659539175647, 0.18590177971164581, 0.06689520210963087, -0.2555644105498646, -0.015617172204748765, 0.062221338506817256, -0.015588706246124014, 0.1023819086510948, 0.11130732017533096, -0.1453912651419172, -0.10475717519306128, -0.21415791273700008, 0.16235183256761893, -0.024576108648154734, 0.05830128919100866, 0.14432799148953873, -0.010691587773472577, -0.2238821740092466, -0.37778621452139566, -0.29756902196114443, 0.058483601251225696, -0.16870758591808074, 0.03349592212637564, 0.008355512718846431, -0.26420663675067946, -0.06165302339886442, -0.1907135151115347, 0.17992947040911594, -0.15250289415678112], [-0.10883408871147442, 0.1479936143415795, 0.1284927250812067, -0.06490794119436762, -0.1565047810276509, -0.17319872067041947, -0.33594784617283285, -0.020436407125693994, -0.07737053997909035, -0.08615418681174536, -0.2298335465858373, 0.01394599776795751, -0.03035770766426205, -0.02545994729378802, 0.23177552824957007, 0.038945259198291414, -0.2944911736853671, 0.1561977995745646, -0.03653351843843212, -0.018164284403013608, -0.12173398874528575, -0.03833308334056679, -0.005102656908698548, -0.0470806417742988, -0.11761491767408123, 0.26809824699843504, 0.04370691470372815, 0.04248776835226001, 0.15218652813869393, 0.4087186212936705, -0.039053730167388764, -0.23990676609690448], [0.08480844891324545, -0.10351607512039447, 0.19433205976999587, -0.09103663519576091, 0.07016500379717591, -0.25773966941796395, -0.523171800269156, 0.126339013560773, -0.05874217255797647, -0.01243873818143582, 0.22370338193626702, -0.08274199717012432, 0.297050652891003, 0.009350615963878685, -0.04039004312021899, -0.25787606775143745, 0.005537561748991581, -0.16998441384960802, -0.10880878818839064, 0.21304583103684333, -0.2684929723273311, 0.08740142127538081, 0.2805636764666829, -0.12189223485713355, 0.06373279545451202, 0.13929208355862435, -0.2712646689281927, -0.11558802668091371, 0.01155774461862714, -0.39566768717446893, -0.1570830728793444, 0.11219901680154518], [0.08466094405368628, -0.18320712270808803, 0.040319489914065906, -0.06935258961876509, 0.3051070226493689, 0.26831038247128486, -0.18086643071713293, 0.1880177239305086, -0.3856007323941483, -0.1732226237188981, -0.12415583119578592, -0.1102877536098314, 0.35093460644169033, -0.23084046304211228, -0.30104497048311013, 0.11548623512255296, 0.09782884953147139, 0.12411827550850021, -0.08201356146822168, -0.2999531717024838, 0.26699579824631203, 0.1569182478699461, 0.2221451924562733, -0.20786158814254846, -0.034320486929749906, 0.012012998212764001, -0.07391071390788374, -0.053483345578215456, 0.1640155677658424, -0.17243791398305594, -0.0710570983925222, 0.06536120157181151], [0.07569021214764128, 0.19250124543396438, 0.13859691832387086, 0.2043645450390477, 0.03604554559651226, -0.19038447380569165, -0.13181822466506973, 0.2895699665100356, 0.28986166781033296, -0.16147079011595591, -0.14344659356698555, 0.15167783730339152, -0.12896616896147098, 0.13438206907126182, -0.4399166611372848, -0.04409234688637473, -0.05764388068234248, -0.22395737711178176, -0.3264319771806848, -0.14293434585738904, -0.20109735448639504, 0.21385809564708577, -0.11637929870768852, 0.014454480048269195, -0.04979195664034342, 0.03695003747881299, -0.40777176171649837, -0.08921097439192209, -2.299667056164252e-05, 0.45792695645671555, -0.13983316896428746, -0.04409393267908346], [-0.028378831691467623, 0.07009486915845557, -0.06109285468276168, -0.1125789165096971, -0.1654315087752008, -0.11949510561096843, -0.23308944811460294, 0.028727359624269564, -0.09637643075505602, -0.020644444094944644, -0.37619247548916884, -0.17266575401827292, 0.3201196606209678, -0.06079485131496383, 0.06400145924700416, 0.15393151810202343, 0.16376202160059738, -0.12434576120910626, -0.14839079610295014, 0.09540513924914451, -0.10540595180605705, -0.053497065884230734, -0.03591433831420369, -0.42149750170447153, 0.04178282710307315, -0.07604396124274708, -0.028847075406224294, -0.08285297330008871, 0.05436419683289386, -0.05843873047771898, 0.07515635785565614, 0.19543313642230542], [0.06647883843039534, -0.07458430012959961, -0.06957580810122702, 0.22445203299187994, 0.06465337493488858, 0.03981714228373796, 0.20281139879485843, -0.048221158546128, -0.3202746046762286, -0.029607878351676765, -0.1820269685364718, 0.04319443371409022, 0.35925717863876194, -0.1021843977685358, 0.15563618591317077, -0.09764623290266891, 0.05336894378291973, -0.05729551035418007, 0.19788086638114316, 0.05244229468836805, -0.11102735015739729, 0.3791166177346414, -0.12151286730530372, 0.1181873124674978, -0.40122087587514854, -0.007890068517323245, -0.0382413099327258, 0.16078231467582282, -0.030975503688806316, 0.07366752780264539, 0.17196161021392406, 0.23402829756910798], [-0.04144424186220603, 0.050239605741621916, 0.04536986635384863, 0.09052187601126056, -0.08387334231032118, 0.059707177756885915, -0.02867210157980902, -0.008404512035025881, -0.1542273662475742, 0.23650802240031157, -0.34909221133813206, -0.09553737859224723, -0.10607375449756608, -0.07777721620663325, 0.04103052539842547, -0.3020568416409117, 0.038426452574890045, -0.13431729168493145, 0.20197783169987987, 0.24242888266303914, -0.3320110652103054, -0.04067399966622809, -0.08883894259051511, 0.130105677302371, 0.2695870091814696, 0.15110422267807394, 0.31244632308456793, -0.24630952977492263, -0.2540214009892217, 0.29892060100754503, 0.05169743393456667, -0.39058413753592014], [0.033749172177930935, -0.05082686400178173, -0.16129091477251165, 0.22025509895710677, 0.20366703395164398, 0.01985680680479893, 0.05288599303590351, 0.22969582602454436, 0.000294525092743459, 0.0852413635067928, 0.24673618389372928, -0.1816428788853802, -0.12437868232376384, -0.010445458525939455, 0.23483531363726143, 0.053456541498941176, -0.060081724972474444, -0.0025894875011878305, 0.10054502868623474, -0.2757420407904824, -0.11803641207288905, -0.16179342709557526, -0.04881839218357391, 0.37565677302390993, 0.03324808882271591, 0.1158105056384008, 0.04234156121860452, 0.24750370528310364, -0.2515744898779967, -0.2707057444931248, 0.062488247776540065, -0.07047619266747907], [-0.10838466838327687, 0.14355315180232342, -0.16747557502149718, -0.00782977758055162, -0.014340076563244781, -0.13442828233490017, 0.05494415687463641, -0.06535021660409669, 0.21176671502924832, 0.293781951565471, 0.026533927323046175, 0.06453009855411872, -0.1719823347912791, 0.12239766515450337, 0.1742076581906931, -0.18775885915962126, 0.18257549193991734, 0.21250007456072142, -0.0695748939657083, -0.09187730079982795, 0.17076687106500862, 0.04626605294959872, -0.013798639713986052, 0.01001834700828333, -0.13254615254398244, 0.018466975655255458, 0.0702256803702894, 0.14997261737025663, -0.12409821719525413, -0.04154818056010384, 0.037509648096973415, -0.03467387780084206], [-0.0013172891412355768, -0.09395533849714523, 0.3003408453617996, -0.0013789924519697545, 0.11460031457293436, 0.11913394637354346, 0.05601119858012551, -0.07675985344387316, 0.02277296914024694, 0.006926913511140866, 0.05548769040530442, -0.06274350942301132, 0.14039719454833816, 0.17973996353995633, -0.05022364584196684, -0.1644016009532465, -0.09387748754756346, -0.19848210282750522, -0.0375958677376672, 0.0731244427241167, -0.13918452744718282, 0.04881479815808192, -0.15868252025477955, -0.15631054650471182, -0.15428210535532433, -0.14380483112291143, 0.11515006457062166, -0.09347317552702374, 0.2577054265568085, 0.04215035446069818, 0.17029207018319997, 0.043489232578690674], [-0.25680183781332033, -0.11043885308224673, 0.3516031585176765, -0.05990882803815467, -0.2694558410402118, -0.13300568660837925, 0.21819938617503182, 0.13462572119736832, -0.13529783650463997, 0.42951637888689076, -0.38563766410995187, 0.02015714579657396, 0.2509681812989245, -0.2981426002813825, -0.1185938780058862, 0.07665564390695027, -0.06557666549405002, 0.11248999176722965, -0.19925917006583768, 0.3870793498373044, 0.47784804526627045, -0.024059067763508666, -0.32091126294495687, -0.21365123349045131, 0.4613463770803741, 0.042279499415596694, 0.2135282454575334, -0.25811491662573793, -0.09321523125733314, -0.26906480799938187, 0.21854462482579298, 0.05860262194844052], [-0.1769746323325222, 0.10446123791630964, 0.6795839698372846, -0.05019075747878393, 0.11018194023793591, 0.014754518500234355, 0.08673656417806065, 0.2966580853625959, 0.09727464946647947, 0.06321288137563712, 0.1923903590206159, 0.2320194596569474, -0.08101301287900048, -0.01630752999043576, -0.08979906067296743, -0.07487658352786268, -0.010847653520040872, 0.3663089541140387, -0.1654545234713361, 0.2407943697770007, 0.06539872715481138, -0.23857185796523783, 0.1035416852817367, 0.03018050365931356, 0.10149578873631601, 0.10356887993249228, -0.2213132786528052, -0.3270335893667714, -0.03195521388560757, -0.10725162952406711, -0.10614930453346225, 0.023896651601901464], [-0.1005107158208201, -0.11640318850295694, -0.5334560493481458, 0.047232942460646944, 0.23610684304760957, 0.05266503431718972, -0.2239953197128384, -0.035747165796674536, -0.14020043623104414, -0.028228288478583927, -0.2726577613016072, -0.24221940779682158, 0.3241630975030549, -0.24873378191631984, 0.20417560044759434, 0.2436234548624505, -0.2949849657284655, 0.16414409154616583, 0.32140171507374776, -0.22496399903765538, -0.22314251847557268, -0.31532613696452166, -0.03223889250740714, 0.2694950401112753, 0.23209159681878108, -0.01265386349756127, -0.03252616937413076, -0.06599351521771922, -0.18848712404328363, -0.05321388956929263, 0.1524650079343044, 0.22287040006679348], [-0.1446958676452022, -0.4748097235879233, 0.23401357050087415, 0.18623364471492246, 0.06861443211929168, 0.17159656691398348, 0.07443136677278755, -0.042519450721126006, -0.08913963619118143, -0.06041550530517977, 0.15301968609081573, 0.4161413541610069, 0.11580002663268552, 0.10851839816775258, 0.04323692363023401, 0.10453628913994578, -0.13282515101081357, 0.30356780988581344, 0.01523891478578642, 0.17096936652918063, 0.03169863243349455, 0.16924191660285387, 0.008197175138975676, -0.3724288763206669, -0.206112669219501, 0.298873328185131, -0.14782255628910673, 0.34076036746849014, -0.04650833336390828, 0.05313822010627459, 0.1275579596302403, -0.017116585023483323], [-0.10019640792424075, -0.02655639814738841, 0.08717926803618706, -0.1824433888620223, -0.1509323565640987, 0.388083789141357, 0.07006608566732311, -0.09342418183576963, -0.1976178418521627, 0.0919383224993729, -0.032893065191405405, 0.11608191246351308, 0.016172846126646937, -0.034706878971799505, 0.0006700618728093972, 0.30864850898677326, -0.19077180425206255, -0.025106192626754606, -0.21348732007219537, 0.07984234979532354, -0.0363113025242979, -0.21613438902400206, 0.3490737787763126, -0.23851885094094077, -0.3185661911982872, 0.07269513002755698, 0.03539082004262941, -0.048479866275214285, -0.17406173479210657, 0.23813988345308093, 0.15333549791299203, -0.014751278607125103], [0.0004027646090157457, 0.13311973273549577, 0.18877886017247061, 0.14111273085541254, 0.21015724766272753, 0.2600142718018389, 0.05866398004011868, -0.1702896265020239, -0.033545481332922816, -0.1472648984939679, -0.07427648010953936, 0.3607319998405837, 0.17837620617187772, -0.33757973064812996, -0.01692940617273695, 0.3058118265492447, -0.019026594788613616, 0.3705717591323559, -0.06620305262255824, 0.021414605151962772, -0.21854236416684955, -0.2554218585732929, -0.012382541867615221, -0.15195800814387897, 0.2292693772837876, 0.18073694382244798, 0.10718464051469628, -0.07628421697775209, -0.1298444394141293, 0.22985652594274902, -0.08694535794079669, -0.09252437834025191], [0.0431188506678522, -0.21425474392444696, 0.1638577480556721, -0.06581483056950964, -0.06793900724043679, 0.10776489383743267, -0.1566549884611521, -0.15818027183987973, 0.015580650550083284, -0.04166267403167268, -0.007495059569194755, 0.038033621457987325, -0.1448338307959283, -0.174318032142522, 0.2102685570304773, -0.07969364981034087, -0.1793714710626766, 0.23191240187524587, -0.30749254022924716, -0.2969684090547706, 0.10580572920963792, -0.2676418393811992, -0.03484448570513791, -0.11371937616869583, -0.11344873639938981, -0.16144896621880797, 0.3218615386264751, 0.03236751825203657, 0.30123591600560534, -0.013415428870568352, 0.024842486061107658, 0.2780341323534188], [-0.09552388175562013, -0.1726988708998318, -0.2654585818861271, 0.27720668723505637, -0.10730249408889936, -0.1440570321296055, -0.08002290687082769, 0.013225846008377761, -0.10134846784479244, 0.3212940804601102, -0.012917760289138389, 0.1950125437936849, -0.14273910600235495, -0.12262781893635541, 0.012954096373772652, 0.36326943736733763, 0.06558658407349055, 0.29381850780301333, -0.08717353251418525, -0.392276523345333, -0.23159055764673786, -0.19874492772048188, 0.11329895103745284, 0.29759070928184655, 0.1364462784741128, 0.12810143118898015, 0.09395142622024266, 0.0696769799137955, 0.12316315284865703, 0.04409041718160424, -0.02316269262149353, 0.23871790912029608], [-0.03451376542872367, -0.1825508640500616, -0.2759382833341703, 0.23062885061764132, 0.297296969908323, -0.3906977301085434, -0.09923749101627755, -0.07149574217618274, -0.32407000709684886, 0.1626073739737351, 0.021254008195391444, 0.07925943481659152, -0.08797192549312222, 0.20246608492266005, 0.013042025585178578, -0.11390661165198479, 0.1033977697593969, -0.2746914242535967, 0.021587885021480187, 0.015138919178318947, 0.004865918115207366, -0.3738320673911157, 0.002528777637833232, 0.0016490612120424657, 0.21002483067315125, 0.2666831806153739, 0.16109413623119373, -0.05041983724698197, 0.05017691217517941, 0.27558310125951546, -0.11667326769300271, -0.3655872399222414], [-0.2042625096061241, -0.46224740024992955, 0.08209097849158664, 0.1706164436574016, 0.4103418200032838, -0.008862726250264295, -0.3119188688120146, 0.25551653324016826, -0.17450394466382735, -0.19140269595601747, -0.07491130996760831, 0.11033251661546511, -0.31303651877043576, -0.08228687733209802, -0.02086130470220865, -0.1715924916629256, -0.042392464860963285, -0.0448362044799835, 0.30037435726451905, -0.033109266351895476, -0.1639652649925297, 0.2431604506242395, 0.060735484194521315, -0.3185466609903704, -0.11793164594837353, 0.08182354787211968, -0.2533102205106619, -0.07604568810770096, 0.1564512458082478, 0.13692989365934055, 0.004025174632140867, 0.18232743233601012], [0.09155822607745125, 0.1439780875713604, -0.09182959825931285, -0.20192728556910355, -0.035893917788993916, 0.05559468240360896, 0.1696173270349809, -0.12724006950057432, -0.09253722878159615, -0.03268629543874886, -0.1544003762619631, 0.12156299060014687, 0.0796237740015674, 0.018595135279108693, 0.4079336819928118, -0.06803273973308671, 0.10416327660228733, 0.032780154053817734, -0.21977169338834465, 0.00766412824826139, -0.11684282050151738, -0.023645850540622102, -0.22990875249567938, -0.18243254865346817, 0.22136848513784238, 0.015073993239651102, -0.022419416127494193, -0.14821032311264895, 0.4573689374410726, 0.15460338172682123, -0.13718640877669888, -0.01880956085135011], [0.060186181323498136, -0.16743980777726433, -0.007994518959634503, -0.044699654928303516, 0.137164886498103, 0.02227976875191485, -0.03798342216378653, -0.03950207276838998, 0.2959009722660408, -0.18664445351311712, -0.23451665785694306, 0.2153923823961353, 0.1395551273546566, 0.12121591529106504, -0.07366983212164166, 0.22209148644040697, 0.0887512328430589, -0.001453705068859172, -0.08207079920899081, -0.03955721763897404, -0.11504317813527261, -0.17504017208824227, 0.3405129551981249, 0.09660873814925955, -0.4595156671343326, 0.07000232368156177, -0.06670971243833822, -0.15222349081343398, -0.05910352326698497, -0.0734840973317429, 0.14241825029136523, 0.09162638113955196], [0.09847521669582864, -0.09531602541517874, -0.15965336123909452, -0.30169543171412616, -0.18697415711945525, -0.03207248537313138, 0.20032031212406506, -0.15292773970245196, -0.28139719051336126, -0.06724735848663164, 0.05142733779550196, -0.2347609113429084, -0.14143405669348613, -0.07803214824670453, 0.0475606549254081, -0.02764839281676333, 0.025713926636412445, 0.06094473449921769, -0.03762730374592041, -0.10476040465221279, -0.08659590190235318, 0.1474346108294603, 0.18296998524634744, 0.19998316615580122, 0.23048640836919948, -0.1789815986998841, 0.012696885330320547, -0.025740856447393202, -0.2842340533549618, 0.21097689110584125, 0.17088647566321505, -0.08384262871433897], [0.11397605480459938, 0.2170678362270516, -0.20164286565849263, 0.12594236192467897, 0.10135915904031635, 0.033916770314362694, 0.06652410537189331, -0.1695045198798924, -0.23729361788273012, 0.04118265752518671, -0.08486210977059727, 0.11153962766957831, 0.03249636931121475, -0.2405537896036813, 0.10263631880947277, 0.007600557202864574, -0.06059992582843483, -0.10602699148727297, 0.17453371974890033, -0.17274204904382193, -0.1961224724910757, 0.19846854490782934, 0.05148069194550578, 0.021188115180521397, -0.2629171937863127, 0.05253371108998708, 0.07194630739581684, -0.04946179856312585, -0.0032544657601082127, 0.3440082434298755, 0.018897975830970633, -0.037116746012632984], [-0.12576565338110166, 0.025018659061548675, -0.23620219374314844, 0.26587103011334634, 0.23819309118191995, -0.13146570217835762, -0.18560451440842896, 0.2595704411715335, -0.04709820605776185, -0.2210005504482521, -0.17929643048034455, 0.06156712605326328, 0.055094773437788555, 0.06892961401431312, 0.4366070158730593, 0.11803386397887311, 0.05318245623716271, 0.06481550081167838, -0.2071034685735397, 0.17527466643316914, -0.1588423318930527, -0.12553888992148768, 0.14423554610096598, 0.010966954299659855, 0.13693871965902638, 0.018071409264856276, 0.0002132835161412208, 0.17677874271255561, -0.1397089498732114, -0.004657316160843484, -0.02781818777453519, 0.15064527777575554], [-0.2553109003474991, 0.13422916308178742, 0.0031558133133058512, 0.12863594511773918, 0.12326092296697957, 0.2736078761827914, -0.12534691261168138, -0.009974687819398472, -0.1278381317940367, -0.0364306944923604, 0.16546075787469489, -0.024144643845070018, -0.05427382016020809, -0.02180107220856869, -0.11223548440954645, 0.03163870491012122, -0.05945469375019179, -0.18724117350392883, 0.41891709675096633, -0.24380859513000655, 0.05546449606385108, -0.003900961473804424, -0.2533752212197961, 0.1532432019277341, -0.14257259676108194, -0.15311461843197186, -0.39077623332578965, -0.31107419808176884, 0.22108305341314036, 0.4780756783534873, -0.2223300207761867, 0.07743430933493925], [0.12764939498211642, 0.05529133295751333, 0.42148569378777323, -0.25569428712367614, -0.31301578237913236, 0.10385033602777323, 0.07482760641166805, -0.07769171260666598, -0.012628675397206588, -0.08096299946311959, -0.006541997064945149, 0.05972648445405749, -0.01593030624258264, -0.15516915517580465, 0.044459599537030985, -0.017572748938077445, 0.09466489728311131, 0.37421426803389013, 0.16127790392720526, 0.1520350170823044, -0.08654806390805923, -0.4040235209801484, 0.06845749813511762, -0.2709444236613572, 0.028129567960170857, 0.1536334657274514, -0.028284087331112415, -0.2730732411973928, -0.22872551224070614, -0.026359318381577818, 0.33482903689461163, -0.18487191472915296], [0.41754407012385336, -0.2954939628207049, -0.17183996463339501, -0.2197135199133867, 0.01671390661363657, 0.19689396124468983, 0.15672738206582285, -0.09644813659029296, -0.007318660068920679, -0.03311075281253812, 0.11360441689930766, -0.17993583772222335, -0.1547820056157013, 0.09250794564336857, -0.07161032133730678, -0.3069342943996626, 0.094667946304743, 0.20230076036757869, 0.03308873622408482, 0.1367531903668534, -0.14282400626904135, -0.2555661855209773, -0.04961875455752119, 0.39498054733618565, -0.2897101360780787, 0.05109078483255711, -0.19454316536098495, -0.0024597277283774075, -0.0059777553014855895, 0.24462019584976635, 0.20010975041913334, -0.020797146003320888], [-0.22624127561430873, -0.09564640434775935, -0.3821969938545887, -0.19428452077137512, 0.13671473335352716, -0.12966502307059327, 0.08190252249377941, 0.04838602463725013, 0.3256980895209078, -0.09318677805973792, -0.13797022715852378, 0.0064374362332454875, -0.07927767521043036, 0.39671579348737845, -0.1455616802128358, -0.2078205841232896, 0.17332729848645673, 0.223852510206293, 0.4771078139261325, 0.11521432802873638, -0.1794259083153783, -0.2655383881950741, 0.18561285911176917, 0.1632171805199728, -0.24543109063784138, 0.11613766841395164, 0.3430392417230024, -0.1213537278023194, 0.2343196818426775, -0.13613685116943855, 0.07517134715822568, -0.10411435854729115], [-0.04007753599439322, -0.02728569220806564, 0.10997531687793045, 0.19550073410422067, -0.13478705372363922, -0.24810118368648706, -0.14812671872696084, 0.20411452057302495, 0.2443525036320475, 0.005629557976486557, -0.009135931069251974, -0.10658120766931814, 0.08898362330577071, 0.29841937585032574, 0.0042411317706120555, -0.16728177633785724, -0.11318874708987073, 0.16548384265758914, -0.13363088254927777, 0.12506447872132465, -0.2379056671814094, 0.03298914503661365, -0.11631931908210613, -0.007143666943639902, -0.09605472131733254, 0.11801629748484863, 0.13070497110954288, -0.07690572717168392, 0.0809478901465454, -0.23897109376798625, -0.3009424049193026, 0.045966313808527066], [0.11651344297240723, 0.37010234875791914, -0.14084330470796103, 0.13427572832181764, 0.21600676624740606, -0.07743290810381853, -0.3785243898784791, 0.01202520825629544, -0.08879103963674417, -0.0023314750038852896, -0.060287361971781576, -0.10702822234873369, -0.2471390850720658, -0.06009026099931616, -0.09344470213893372, -0.016407199317185785, 0.1820727538862758, -0.018214433623516827, -0.09597439087723121, -0.27029809932166443, 0.1997121356475334, -0.10318841570677392, 0.132131070665487, -0.15936811528154513, 0.020680505872929078, 0.15281786067786876, 0.0021378660477290815, -0.11725160434726964, -0.32828004426461044, 0.082462026652225, 0.32450189185515566, -0.08336811401808547], [-0.017256838180084343, 0.047380682709800725, -0.0008843705043499509, -0.016540590658419677, 0.05546883509862257, -0.12632214121992164, 0.03015765040129033, -0.09027498454259618, 0.007042530957429452, 0.19249217797154114, 0.0003615404853363713, -0.1825437095108135, 0.2412652005487889, -0.2152774498159718, -0.08783246439856958, 0.0071047859975196, 0.0975951050599295, 0.03563872969975681, -0.006113605963589639, -0.13248802406612734, 0.06351488926612435, 0.30337592289864, 0.042691903837444874, -0.0866484955530817, 0.05827766152481734, -0.01263827876790377, -0.14852269724798434, -0.1767888621898216, -0.12813758547568257, -0.06452841322572735, -0.008706298203413457, -0.15940511407779004], [-0.08288873738237978, 0.2997557640187851, -0.20021656276566477, -0.45807090645555104, -0.042914522670251996, -0.046151544741799756, 0.04288676725571461, -0.22508485508426987, -0.10933599614604099, -0.014136570651607741, -0.20100020292616852, -0.20873872130631335, 0.1156882779241696, 0.16655954196532996, -0.055780713405707484, 0.3550895366204894, 0.15605981202884606, -0.12640222278344576, -0.16775221338657312, -0.008391912369614216, 0.049034747171366626, 0.2569743727528939, 0.0956831132974308, 0.08559235213311658, -0.2076682914172852, 0.22713095626926752, -0.14960044706413697, -0.11965542251488166, 0.2054739387067601, -0.0042660923464766295, -0.11667471509053154, -0.17663506741281754], [-0.08307125963973354, -0.09997567964318207, -0.043857151280462234, 0.010618827918805843, -0.1206543568631934, 0.2222612288532309, -0.4353015778731055, -0.1629146445372808, 0.23472681037974946, 0.21988521104898562, -0.09433230839728782, -0.1346094563170258, 0.07017444477371998, -0.15183325356154806, -0.08816390968295296, -0.049595833963047405, 0.2646610704949544, 0.1401817850205465, -0.1469903038376861, -0.03232863626996004, -0.26093432112756576, 0.04286675686732774, -0.1068783467654381, -0.16353503881243714, -0.045481066433513496, 0.20094840482324897, 0.10535052930150621, 0.31511514548427444, 0.0015216525892872404, 0.11664123511313024, -0.3429652269833435, 0.03236408520213732], [-0.1399676060739328, -0.27097766866407913, 0.18293079752368108, 0.29305212861925445, 0.17926191230633984, 0.1427040345331427, -0.24973818941780176, -0.346366392264522, -0.19968386610659491, 0.01617270440868254, 0.07005632866383507, 0.04761257142222985, -0.07020910169296411, 0.0018182003098931013, 0.14184687647302413, 0.009450524493048257, 0.5625171491009756, -0.09486632674570417, -0.17221552739692403, 0.44314420703745894, 0.0983229455485475, -0.3471202445494416, -0.1139516010203445, 0.3263265925152798, -0.16732264044604317, 0.3365242642690069, 0.09404908255211508, 0.04137836894137627, 0.07330972293824378, 0.09965535964381719, 0.1763003903549831, 0.2984404954272662], [-0.30866497860718767, -0.33209174033922184, 0.1188143206873648, 0.10642525398031677, 0.006695443765186323, -0.16710606806335643, 0.07991151702149187, -0.00013476187236969222, 0.023871895100624745, 0.013338030795131548, -0.2571079268503995, -0.07226374373213178, 0.14636127679470856, 0.04734092698069336, -0.1406263252001575, 0.14218728697153932, 0.037711732740835564, 0.11683969522822081, -0.35643329649029265, -0.1597276768131162, -0.11439660608770066, 0.27978014016884395, -0.0025810307484140245, 0.12183668733165844, -0.1586440130561796, -0.11085968422279277, 0.16569330006819513, -0.3752878957636556, -0.10019388121455546, -0.07895803713785066, 0.02191903078021549, 0.31942406576108817], [0.1094703148883576, 0.2181942026484084, 0.1874006160386933, 0.09324956748920349, -0.1398412357423533, 0.06836777444661594, 0.0018087241323277807, 0.08166175649689643, -0.31013356813353, -0.05964488794320965, -0.3047490449615223, -0.22172159067812428, 0.21764926676807708, -0.03394354527206513, -0.1953836299464447, -0.08965155298327121, 0.06553208304853111, -0.10564331551874372, 0.07803520805807526, -0.2928892686284614, -0.18258184984962234, 0.07855484101885585, -0.014396788055398898, 0.10912812832960404, -0.06328106457362932, 0.06883308262690409, 0.11194156714772248, -0.07433121168529686, 0.3029289580773562, -0.15627321549553613, -0.06692137463606797, 0.0515767579000723], [-0.15249190789435932, 0.14835760573928158, 0.1799415041634013, -0.17309469149696544, -0.2644020566222331, 0.1361997296335465, 0.08948641190063651, 0.3171428980664021, -0.0074165336700398226, 0.03260252448735066, 0.1744985143793855, 0.17611885769482521, 0.07425327948824521, -0.02047855000322037, -0.18586571921184716, -0.0056308761302257615, -0.056675268989483246, -0.19876741559633665, 0.05380916922025781, 0.20255359898849534, -0.423904680540918, -0.0891644333686335, -0.1908434800131698, -0.010579149261852142, -0.08094133096316523, 0.35550884988827963, -0.10383544784092748, -0.14435611308179308, 0.052417501306802415, 0.2054483281739234, -0.026869226526454577, -0.0103111951766099], [-0.16038995723648186, 0.014837604563184116, 0.14077917385860395, -0.07389166500713777, -0.269531523649019, -0.022778606216201418, 0.15367189151919636, 0.38341161771499926, -0.22944093252716424, 0.0023281487109456447, -0.1829405695521606, -0.06870546241049871, 0.06318354774938603, -0.024281643064561924, -0.1235644123293161, -0.1409432135698724, -0.17499537870546605, 0.23935820371051586, 0.18038124086308577, 0.19560063124108348, 0.23035710814402435, 0.21363386838907125, 0.07449110861791851, 0.1282662163660328, 0.2715402647332265, 0.006328188734339781, 0.023839056831615257, 0.4173501932046069, 0.17203575087305045, -0.1663807625268019, 0.1052726955587093, -0.029710431802082077], [0.11781301971183328, 0.05013347412007076, 0.09008409405032239, 0.2676133791006191, 0.17101004365168335, -0.20292056881627013, -0.00793787385488376, -0.284019817181243, 0.2640227597439717, 0.17972360885817093, -0.029429966841207016, -0.05942489440990313, 0.3800008661077547, 0.08427984950401, 0.06630437965200384, -0.11430778398675763, 0.24412542345413357, 0.09935215482791816, -0.21914064383587392, -0.14957939647239546, 0.1268627230062445, -0.13484464605680144, 0.13330993445562236, 0.0671125540544283, 0.0671769611872526, -0.05149220876244739, 0.10357914308277923, -0.3580202512397191, 0.16341025476738422, 0.12354962661613535, 0.04476316724680652, 0.0818301561242219], [-0.06582200335522491, 0.08079161067952202, -0.031757564591225904, -0.06362576856406855, 0.017857686211132956, -0.038447989228549945, 0.2588314650822385, 0.21773220741599067, -0.12562124790774287, -0.1803718453397195, 0.11039712628963402, 0.1530132109643518, -0.009119620541600643, 0.12439219814617378, -0.052203241378261954, -0.09302866744079577, -0.14778597396964727, -0.12374870330381073, -0.45598337181275794, -0.15072979461913041, -0.3208405551662852, 0.10204325688849704, 0.2032172564950554, 0.13328589772832333, -0.061937000563367546, -0.06763814047544806, -0.17616997915170732, -0.029705400560073078, -0.13073332564460854, -0.2348132836917622, 0.12648797918254542, -0.23050368384739953], [-0.056329190799775705, 0.03933771234580928, 0.025174558919262076, -0.19086687655467968, 0.2622365566962206, -0.20864747383126295, 0.03318935412051003, -0.12997158620503313, -0.30883393484711985, 0.1380506173348735, -0.0907224573865374, -0.06174733422187216, -0.07542274856704377, -0.08462820069616922, 0.2246999348412692, -0.06936092196833446, -0.0564921304711067, 0.2967784578075911, -0.2362806509416531, 0.02933860086366301, -0.05512133008429352, -0.12087380698472144, -0.20210339411405104, -0.06298778507362898, -0.49629675512127347, -0.08344636642379165, -0.13116664889767923, -0.05863483611388796, 0.15535184834632998, -0.01570592618575384, -0.04006259897592531, 0.00842626241174409], [0.1089324670089333, 0.26674619599147764, -0.019369922446962777, -0.006441354625297919, -0.014686728298300932, -0.0015668785195022818, 0.06750129525702298, -0.1640495316353354, 0.05340605609216462, 0.19459365363149045, -0.15446897230055223, -0.2171324186626466, -0.0609252755386916, 0.00995838908661084, -0.15386164987652673, 0.21505365718168648, 0.28698589343092645, 0.1705305834647761, -0.293678367687548, -0.04251150836770104, -0.0175110933435649, 0.10886372105599289, -0.11050623131799352, -0.1411140633888836, -0.017676040850497326, 0.2649036592987008, 0.03212947883432986, 0.07587158429463603, -0.14185645202490213, -0.2513079700766831, -0.08659028119591482, -0.05152988230660315], [0.05100978049596171, 0.08334308785541018, -0.06393881270212677, 0.1711620785943707, -0.0678012290203255, -0.3517371591630486, 0.21015050608194696, -0.04121812884317523, 0.08101580266260812, -0.23124817007375234, -0.3950564598247006, -0.198726409319731, 0.11248598842332752, -0.4694065135970381, -0.14544307968430012, 0.19663623371568376, 0.215774914022742, -0.07949463103262283, -0.11013918528942417, -0.041069236087319695, 0.16034886509813503, 0.1714414456370484, 0.17783062065335334, -0.07901942520248867, -0.07914520947553692, -0.017761118364481066, 0.5251246891821658, -0.19411337142373492, -0.09713877997023308, 0.1075524095585153, -0.07182406926009681, -0.15012894815630523], [0.24811651998938955, 0.00718320626335444, -0.04677519659832674, -0.3626388454779799, 0.05608645097088185, -0.06452916684999677, -0.011811379042236746, -0.07095462824779486, -0.0009524922264072466, -0.054662519262779194, 0.024884719433545106, -0.21646135369174882, -0.12802951716747113, 0.14977137861057657, 0.1012257060837145, -0.19424277704011494, -0.36093695551772226, 0.1563840643360515, 0.11397102117150487, -0.16503535903417693, 0.020109071240071684, 0.1951306847008381, 0.09543509455822793, -0.07519584195676284, -0.34028965396840155, 0.23545248839295976, -0.024287089435695425, 0.07157359412487868, 0.20633083453641185, 0.06878205253561828, 0.38503154261786654, -0.1202513786718198], [-0.08935747350162243, 0.35216095694068594, -0.17444449024405562, 0.22018775704441723, 0.028242190418804835, -0.016382585123197988, 0.029075639246421984, 0.03452896365134107, -0.1811989494480842, -0.09155252417260548, 0.2250650175995158, 0.2195626321079584, 0.021182105493937377, -0.44105041972870895, 0.3730302873957081, -0.2053106098817555, -0.2561229254599623, -0.19956274390478596, -0.02218652989592338, 0.24891737806282876, 0.12836764965410052, -0.07481469763008712, -0.09190564857992113, -0.0696417181268832, 0.1891546235164611, -0.07840634944850448, -0.2972583689901889, 0.08599642446223428, -0.05709325832586873, 0.1408427021129397, -0.006212956910068831, 0.05076672287724081], [-0.2662647778607039, 0.23408166234944994, -0.019109325868613015, 0.10297901119698333, 0.11068995427095911, 0.14702585794679796, -0.006419908701367661, 0.32553313011108376, -0.011079358793439149, 0.1329629482615239, 0.03677472021952139, 0.00451193630451081, -0.338964713872818, -0.11402844257526636, -0.14863370644197285, 0.11534671815857561, 0.49368605417013034, 0.001823700586259631, 0.2578805046766269, 0.0794223536106801, 0.044459353233022705, -0.0577625524526546, -0.11570454354710004, 0.21568985716061095, 0.22598054141035312, 0.2541713154688326, -0.03662497504178746, -0.20246995767446538, -0.08282817481078525, 0.06344147080262857, 0.17108503240578513, -0.16228235404241925], [0.14194402647371246, -0.13198099806913968, -0.12964706293008516, -0.05711463187735733, -0.10476660575939545, 0.20289695797898336, 0.04826304355605421, -0.17757303452246925, 0.16022091727222607, 0.37584413578263187, -0.19483036005570625, -0.08931270248547023, 0.06364175722338378, -0.030684697944148593, 0.1656656460932812, -0.12721021229881962, -0.3454452255730334, -0.03495418986347367, -0.19242640967438615, 0.006274164823626206, -0.026422783539573915, 0.023508435146523773, 0.041213525784601905, -0.011734373133171655, 0.010815217691566598, 0.29742792085472286, -0.3235683596928998, -0.0023357203537448237, -0.008030265558730262, -0.16567547536669316, 0.09844679676274874, 0.09867970045293004]], "bias": [0.0, 0.0, 0.0, 0.0, 0.0, 0.0, 0.0, 0.0, 0.0, 0.0, 0.0, 0.0, 0.0, 0.0, 0.0, 0.0, 0.0, 0.0, 0.0, 0.0, 0.0, 0.0, 0.0, 0.0, 0.0, 0.0, 0.0, 0.0, 0.0, 0.0, 0.0, 0.0]}, "output_layer": {"input_dim": 32, "output_dim": 24, "activation": "sigmoid", "weights": [[0.22588120103925727, -0.3388175277206461, -0.06294540227793731, -0.06890080850750845, 0.4267876866538507, -0.047346314203175595, 0.20482105211379315, 0.12355582377981561, -0.04235358004480917, 0.2112441365537511, 0.31564424012896997, 0.1689709897990177, 0.05050259942383259, 0.11901113051335831, 0.272723368494312, -0.42587346694563566, 0.5070604539532486, -0.31911124996587276, 0.23152016028945105, -0.24887712081552565, 0.36453667638801057, 0.08878251631184549, -0.12936187455474354, -0.10386417819079552], [0.05401027628782066, -0.2059939185481688, 0.2489863926983577, -0.008662241943489966, 0.07839505901884228, 0.06849489733218833, 0.16405155716327616, 0.3565815474702445, -0.6248321289731261, 0.0002241756287797024, -0.15474842282003884, -0.2671386307093932, 0.2706023051651647, -0.12754048446231564, 0.22328847542617375, -0.3577535574072416, 0.1671017093289544, 0.1843367778916228, 0.10839196531787793, -0.004601937524567648, 0.37552728431532195, 0.35246628502456917, -0.17233182460855648, 0.16538052533769554], [0.07434606810703259, -0.31761402338473677, 0.4343096939806467, -0.28570025036828506, 0.09924729738712011, -0.04486228510476702, 0.23930043438619333, 0.1272145197055098, -0.06573502538025862, -0.29184636278760556, -0.6295478894681872, -0.0831372760409723, 0.17292223566872356, 0.2602505061204141, -0.2078976788152495, -0.06270710222635634, -0.23275124501828637, -0.08747652751167341, 0.3209433392253905, -0.16428996877719804, -0.18220328354462692, 0.07516619358597476, -0.12809330635455246, 0.22317279709404883], [0.1307324177953661, 0.6035701715649439, 0.019362633112886437, -0.27863177912845305, 0.1327575123029079, -0.20068547804319184, -0.052249606798580206, 0.5016191403036346, -0.11453272887522271, 0.3695927188590033, -0.39179656081174774, -0.2979021134980368, -0.041216228792944135, -0.04677989265726248, 0.418958581418685, 0.34974421817523316, 0.45984089236105996, 0.23306670282877967, -0.15704773313822337, -0.032758260063054996, -0.056966594281486045, -0.3894361707286249, 0.45917824878415836, 0.3173095645201191], [-0.01734374806370745, -0.3578677500061882, 0.1092007707825643, -0.5805090235378987, 0.12668742135384337, -0.10846070373401119, 0.3177681194256748, 0.19054173689539128, -0.24252462050910423, 0.13012492385599628, 0.3358053205055129, -0.594361987797025, -0.48528568159438273, 0.08823958052811058, 0.039028886042067876, 0.04017408266726051, -0.16397314609283245, -0.0712824741515918, -0.22555020570497475, -0.17095970508945285, -0.10717010262973165, 0.00047478548724809964, 0.14729378871480747, -0.20041686900318145], [0.4314878527251905, -0.175294916069995, 0.020034540215762835, -0.13646525154713554, 0.2679262204838759, 0.11046607082915799, -0.5108431968197232, 0.15855659288844673, 0.1086230644670638, 0.1344548542658383, -0.4037745201169864, 0.34791116926064036, 0.022837463988170378, -0.00720752358279196, -0.23638096588069205, 0.03328801477081805, 0.20469289041820365, -0.15299546027275718, 0.049468168558965325, 0.001690130008219913, -0.31824635524372036, -0.27362735017258333, -0.24276188920679687, -0.1454827199116631], [0.47991110023430195, -0.23665167875393814, -0.014865160609182389, -0.027233526496844202, -0.03688715707947724, 0.04681496337380611, -0.11259781262371776, -0.015588068875785947, -0.1886433004338928, -0.0006701730074195315, 0.05316659909455948, 0.08812433586808566, 0.08377465688631208, -0.22414366476437972, 0.033960368709603596, -0.16818109859317742, -0.16155287545946057, -0.22709891270497023, -0.3187171685156928, 0.04896421213637044, 0.28961167951232003, 0.04382806923593764, 0.14598480824799726, 0.05030269314164132], [0.15994186374565153, 0.12852254933895504, 0.018827261456112982, 0.16486650711246884, -0.3312540746315401, -0.14888222635974857, -0.1309091103013647, 0.3192066839377869, -0.27487260508563116, 0.3751647308274465, 0.08400338209750689, 0.31616621520759675, 0.15563353014794848, -0.02057643752254868, -0.15046001512323004, 0.32922866417991226, -0.4028115473826289, -0.16070158607485266, 0.041008113618143015, 0.3136909477760547, 0.1502944931501817, -0.36330594586240783, -0.4754216604866607, -0.14165357273274487], [0.2255876208295392, 0.24821997699564782, 0.19783066455640097, -0.1743856528344181, 0.3650870431046075, -0.10079844537691532, 0.7020832934365591, -0.04378674477917667, 0.14812385153695704, 0.00858826723392545, -0.22263545294866774, -0.24340052802013726, 0.28826127168780064, -0.15997667490598885, -0.042160098169979385, 0.19261589957273562, -0.36071543527837074, -0.03570048148921885, -0.1448625078081685, 0.34131763956618244, 0.34203720161262907, 0.2299032080162357, 0.2159899437818997, -0.10109747404194644], [0.24175981366636842, 0.15532628833494314, 0.20894751597278383, -0.019891705511828554, 0.18764699623525466, 0.15925659588313518, -0.3962962895022211, -0.06947694234376514, 0.2379210727007859, -0.5129386255302244, -0.03978603300035805, 0.004842075556922563, -0.20028567756581353, 0.1686706169730148, 0.016069005486813972, 0.3648932546525638, -0.12382037065542446, -0.3372120160359777, -0.055170055386594336, -0.29838203118239365, -0.11380656396462363, 0.13652380564324082, 0.12617867838068048, 0.09985856531243668], [-0.12820608886314241, 0.17568982047622564, -0.08588922656398443, 0.1340800757064507, -0.5270169079529672, -0.024544206963781474, -0.1407691889714239, -0.33047165550495994, 0.020948190566078582, 0.6304259343344542, -0.14856239438980667, 0.09725290168997122, -0.3613738347598517, 0.029347782628460706, -0.031445802475632, -0.25287194635315186, 0.3823377309378698, -0.010871819481631547, 0.0778675671660843, -0.34532833650726147, 0.06081775831384624, -0.038475096403102725, 0.11983448208125744, 0.25557181537750706], [0.40967986404697665, 0.013761756416496448, -0.011082810707273167, 0.4883272785246467, -0.17453246081997245, 0.03471326710598079, 0.0813646714424926, -0.20618103858195327, 0.04249323725192795, 0.5067380105622576, 0.007708419122426734, 0.02495440734609111, 0.42786362029521957, -0.22381348365256543, 0.08434933809276284, 0.5288690143366254, 0.30158707732675727, -0.023787238486700134, 0.09141640268370446, 0.09044447924913745, -0.029761830432120884, 0.11281735447493939, -0.061584008265114704, 0.20257881410394113], [-0.5608062763611164, -0.4357920407540903, 0.006029307993330802, 0.13570768345151582, 0.029674887605766313, 0.4088055535987287, 0.19362659261807602, -0.40089824549370756, 0.11409576450074123, -0.14486995828074012, 0.23929581355407364, 0.11020147069484466, -0.12140062584010544, -0.23067292010798515, -0.020063099510400407, 0.3145863166004915, 0.12064401296476923, -0.09691613597365879, 0.261170088046813, -0.21801416980092012, -0.21923113933936242, -0.032169977669259324, 0.15464880181669644, 0.06079598795832382], [-0.785253627429035, 0.19249675030474395, -0.16830636598405907, -0.4411211779818763, -0.6811993613126439, 0.32628918020021047, -0.2142883037435288, -0.44519051231593537, -0.15628376746968176, 0.15247980052876842, 0.018656616795064886, -0.1348951155908154, 0.018106885539311796, 0.3254439960396273, 0.12556853124558842, 0.24310691072424984, -0.5029956526789646, 0.03497943502621393, -0.18633760344301792, -0.503667427382293, 0.38001045413099727, -0.24299257947350159, -0.08771078616281204, 0.0676518084110051], [0.037534433647820616, 0.05319001953282827, -0.07488776334119926, -0.0029847447420475407, -0.11175147386012085, -0.02295947593853534, 0.17944947816462214, 0.059687804897164805, -0.5583881988481814, 0.32937264644229697, -0.023889377522821928, 0.1999750591411887, -0.3891936180466673, 0.017335941514205973, -0.019975575111600127, -0.06712123739309699, 0.4744994304076435, 0.025309756670336258, -0.009762575605614107, -0.2512376901870948, 0.33955434805723617, 0.2943857509891491, -0.594812985815176, 0.2629407157046613], [0.008163662112929454, 0.2234452371809342, 0.2589361689765319, 0.40488740989374417, -0.13302894518690117, -0.21011241807647754, -0.23387742161360792, -0.19178429118651955, -0.3871503305195142, 0.16452541607594304, 0.1472452146619643, 0.13868477689038713, -0.4262315072270734, -0.05601555451388898, -0.4532606734678711, 0.14369852123155788, -0.04050354416395098, 0.15231697130791716, 0.23350362631445803, -0.06277328625748521, 0.19008140997226397, -0.13319403869600396, 0.08247505844335049, -0.041069232711280726], [-0.11890111842402688, 0.16151627852733932, 0.3221025703187615, -0.03875564059589384, 0.012759132263862862, -0.20388566154951115, 0.02630099067858888, -0.10151171445242667, 0.11876448967083487, 0.2163364011007417, 0.34526065433637215, -0.04010702255123746, 0.23344269336938056, 0.10723682274451936, 0.32662481878286587, 0.11321037888091233, -0.017901017221286817, -0.442851208581208, -0.18583299350132654, -0.3248956675052322, -0.2446700729949979, 0.14116732359195258, -0.287318610265071, -0.44490681235773455], [0.4273807279454141, -0.42960482230137104, -0.0051932108038371064, -0.005764604119026464, 0.03911913620842219, 0.12301562438642301, 0.26115544408830316, 0.11466994112113243, 0.10963120308811938, 0.20742335267890508, -0.2614138579078325, -0.2799414997919651, 0.12848071598368116, 0.11619733144246029, -0.25670875660244646, 0.5521718187937291, 0.4428695806087722, 0.0016169939900980786, 0.1658084420043908, 0.42666457672249053, 0.23567033505163804, 0.5666264217370645, -0.38683407981733775, -0.07310085252028528], [-0.346688639228955, -0.314681072431554, -0.28650567355453654, -0.15903018708520528, 0.32573927441211614, -0.12631891096368703, -0.15515121636124882, -0.019590777405077326, 0.37613664962610793, -0.30247382949312346, 0.40570742222386424, 0.010722110225429094, 0.08294286012871596, -0.06587999765707181, -0.05263999949008315, 0.19672761053181267, -0.11872653040054434, -0.06851553943832032, 0.009481292483565806, -0.2403562613879988, -0.0692708726590827, -0.017516136687328286, 0.1378604810809353, -0.4924817572252847], [0.3220667378686282, 0.316187262842153, -0.333607294735143, -0.2587521588700963, -0.2854973645524174, -0.15542526104033966, -0.029749142119769645, -0.1711388950754723, 0.026995138818149546, 0.06461461846296185, -0.17448205695432425, -0.36447643463713586, -0.1494999281938181, 0.10247310332275181, 0.11192091019685424, -0.09708419306309878, -0.36243674578352164, -0.04885483604343286, -0.12657829218980143, 0.03396778518456089, 0.1465909423325094, -0.570713545167745, 0.3299586400598129, -0.07108900491233645], [0.14385358335511164, -0.14759933155266847, 0.20902524611015058, -0.23493181319589995, 0.13748318528374118, 0.25667984245097986, 0.18350566304845634, 0.20433513856370192, -0.13083425458561432, -0.03327575896592272, -0.03211608949308931, -0.0821535823398327, 0.16310664247912565, -0.13602056276111532, -0.11966694527850279, -0.3468010226046412, -0.22232513380630478, 0.1640485900169384, -0.166606661469442, -0.3134014835040717, -0.35165298169119025, 0.1862951801350415, 0.2144824894370695, 0.13196663491985836], [0.21217308532269016, 0.2334730301251856, -0.0689140570123601, 0.055588421503587566, -0.2003019739258317, -0.3196165055109489, 0.03186474090159345, -0.1192409282670453, 0.0689520040449924, 0.21806880192994377, 0.03652685493263222, -0.042568101839250305, -0.4093937187932287, 0.19431850162755054, -0.2949052175020427, 0.7143024636131783, 0.001999379435721994, 0.5067189169029203, 0.3201441314606654, -0.16604296971286395, 0.03582506718247266, -0.11858039031507611, 0.22215214558295335, 0.04124764204705635], [-0.08576278796137687, -0.035107035778095506, 0.2714161710396084, -0.10701949040557837, -0.30691920477537027, 0.11885051631042805, 0.24119197274534268, -0.3725889421308668, 0.3715325112078435, -0.3512321838823971, 0.29280831408559516, 0.0852252988918772, -0.34443350420320185, 0.1081871769101915, 0.28007510368370797, 0.019277485617524407, -0.43039115644106657, -0.11036075036682436, -0.15994229000220858, -0.07700964990189335, 0.37354742468204416, 0.09513275851288126, 0.19384430860346052, 0.08159340288537893], [-0.34075003423775435, 0.20991380980435165, 0.26378754546108457, -0.13606122637057275, -0.23979551973319183, 0.06505754200596202, 0.07263224347290453, 0.6159175915801504, 0.5349557360459539, -0.08132910220107809, 0.3017065139014552, 0.2627083730446471, -0.3677818973570611, 0.3107066090693533, 0.1464303177692746, -0.2550992550019077, 0.14692402382406022, 0.24322297802289194, 0.29253580506012766, 0.2887066172840827, 0.15478032187662455, -0.0474774332959157, 0.03014415917841657, 0.12672746383275088], [-0.15393645723430727, 0.23987775055226693, 0.26624442436406676, -0.1860092294059967, 0.1158292529149905, -0.048365558921224454, -0.043751326013322066, 0.36898172960355846, -0.27095855135823305, 0.18192294014325147, -0.6479521511204722, -0.013423864691897235, 0.2728274567821221, 0.37756339052687143, 0.1469374262596326, -0.056339313227948024, -0.4113290488570744, -0.07738357323883541, 0.2810640370385391, -0.23605096057430733, 0.19945760047264988, 0.0015363895656100633, -0.1265627017495976, -0.03423028051764711], [-0.05975111627687643, -0.2179553352976937, 0.22359130653441653, 0.0455920225671499, 0.41553794981928144, 0.135547897663549, 0.1075806726075178, 0.2574983830911032, 0.1061388073102612, 0.2100494064906035, 0.26803476641928237, 0.014163995870468505, 0.23775919128032258, -0.2849491124937537, -0.4234740568330526, 0.08821318406558169, -0.05199742988328756, -0.9506390990053719, -0.033570905337887785, -0.14272680008009472, 0.16160898989079078, -0.774102331341941, -0.026988036184569568, 0.043607206170464013], [0.17657849120012245, -0.05481604627654558, 0.7433767881250061, 0.1366888273329834, 0.10134625728286274, -0.04374072073054944, -0.08690344370584448, 0.45319364572366333, 0.08922246115726276, 0.051572368189080106, -0.261817036524349, 0.13085702875596952, -0.49106110402532555, -0.08304101532285106, -0.3624545065183104, 0.3426684300760267, -0.18842170661884905, -0.1557427742231562, -0.19939924937186176, -0.37982145962541486, -0.10770379057193505, 0.23573319867331569, 0.08407396081288558, 0.10570793491035019], [-0.44250761117932075, -0.4067725713512824, -0.01717319558518921, 0.018885685860943045, -0.3401631533998695, -0.333186790577124, -0.0752499747838158, 0.381498146605091, 0.3172779766166423, 0.19910324578063623, 0.13385126222280122, 0.04143671489837597, 0.19117526044714112, 0.408279604176835, -0.0875020894774611, 0.023184694053131914, 0.3681496363343511, -0.22037894814926853, -0.207738016120738, 0.031050857082026744, -0.11587567831829886, -0.4137066759335615, 0.30722605834220784, 0.19545755279656257], [-0.6167623604770547, -0.03737545417097833, 0.18643412706837575, -0.06476777952473997, -0.14328002893456496, -0.15507548225358997, 0.036271799611690546, 0.059081910154382605, 0.23726664700982722, 0.1483353654437161, 0.12309367185912341, 0.4836258091843615, -0.08540485595543168, 0.021959442801866572, -0.1863475643867329, 0.01984387126292755, 0.3008892323868382, -0.16033757666147577, -0.2971838881096045, -0.21981475432621664, -0.2890451824565733, 0.5752088280921828, -0.12794997685656895, 0.4774146529585272], [-0.2846892272353181, -0.2922091248793887, 0.16873010710985245, -0.5909566666043873, -0.10044421241004249, 0.27132833365923237, -0.17826443487098861, -0.05260255247888401, 0.09649183740021065, 0.19367119018028522, 0.23699362974857852, 0.3321678303639129, 0.09287244377332296, -0.1265999312164826, 0.15552553711490677, 0.13210090176303843, 0.17397743291300022, 0.055442578245134745, -0.25895277937634525, -0.024428123547910793, 0.3355693524038586, -0.08781220352316216, -0.023450258581727026, -0.32570586682771124], [0.02578385043519678, -0.12662207896127026, -0.33188664258628897, 0.30860351626641414, -0.10721986606530169, 0.02422876651679914, -0.04001766677649929, 0.051105821277336386, -0.03511542979730409, 3.027558726474246e-05, 0.17446306636837944, 0.0497431622213929, 0.04494840651827154, -0.03182699430999705, 0.07653837692825735, 0.5749824171294088, -0.12137769567247564, -0.2744325951783648, 0.24289213183345976, 0.0811963636055604, 0.056106523695202866, -0.05743041186980696, -0.06146029671278712, 0.16155128735326652], [0.34936335904257676, 0.04734499222886553, 0.2790551191900853, 0.4297413416690191, -0.1829983956023915, 0.01479126372139001, -0.02859344163360315, 0.08407908649399665, -0.029594068874662583, -0.338045290878791, -0.031235636314827345, 0.3440635003695687, -0.15412973709407485, -0.0962653780460626, -0.10772367629624681, -0.703502847953244, -0.11468305316615338, 0.2729917954467299, 0.02003885414215736, -0.3859991754227593, -0.39999251551741977, 0.031247220494019675, -0.4150674312408487, 0.11749250651231874]], "bias": [-0.19561689701914453, -0.16352815442839969, -0.19345220249856715, -0.05728787601700599, -0.19462196256981187, -0.17345561484233313, -0.15313444549035868, -0.22856859388690592, -0.19127421002059664, -0.23364816428740087, -0.1968277138070111, -0.151132913934201, -0.1265646991370386, -0.16309535227856387, -0.12398999248812363, -0.2948980307715054, -0.17950644603602833, -0.09041595222385004, -0.17618264583175874, -0.13415690606134723, -0.1884276644476864, -0.13975035692448015, -0.17526275335018857, -0.13636920987823775]}, "learning_rate": 0.01, "trained": true}